SVM-light Version V6.02
4 # kernel type
3 # kernel parameter -d 
1 # kernel parameter -g 
1 # kernel parameter -s 
1 # kernel parameter -r 
14# kernel parameter -u 
0 # highest feature index 
10 # number of training documents 
11 # number of support vectors plus 1 
-0.021302491 # threshold b, each following line is a SV (starting with alpha*y)
-2.2294600920209724421484909218094e-05 #AACCGUGGUAUUCUAGGAUAUACUGUAGUAAUAAAGGGACUAAUCGUAUAUUACUCUGUUAA
2.2294600920209724421484909218094e-05 #CUACUCUUGUACAGAAUGGUAAGCACGUGUAAUAGGAGGUACAAGCAACCCUAUUGCAUAUUA
-2.2294600920209724421484909218094e-05 #GCCUGGUUGAUAAAAGAAGUAGAAGGUAAUUCCGAACCCCUAGGAUUUCACUUAAACCGUAUU
2.2294600920209724421484909218094e-05 #UUAGUCUUACACACAAUGGUAGGCCAGUGAUAGUAAAGUGUAAGUAAUUUGCUAUCAUAUUA
-2.2294600920209724421484909218094e-05 #AACAUUUUGUUGAUCACUAAUGGUGAAGCCAAGGAUAGGAUUCCUUUAAUGUUACAAAGAUAG
2.2294600920209724421484909218094e-05 #GCACUCUCUAUCAGAAUGGAUGUCUUGCUGCUAUAAUAGAUAGAGAAGGUUAUAGCAGACUA
-2.2294600920209724421484909218094e-05 #UGAGAUUAUAAACGCUUUGGCAGAUUGCUGUCACGGCGUAAUACUCCACAAACGCGUGAAUG
2.2294600920209724421484909218094e-05 #CUAGUCUUAUACACAAUGGUAAGCCAGUGGUAGUAAAGGUAUAAGAAAUUUGCUACUAUGUUA
-2.2294600920209724421484909218094e-05 #UUCUGCUGACAGUUUGCACACUAAGAAUCGGAAAAAGAAUCUGUAUUGAAUCUGAGGUGAUC
2.2294600920209724421484909218094e-05 #ACACUCUCUAUCAGAAUGGAUGUCUUGCUGUCAUAACAGAUAGAGAAGGUUGUGGCAGACCC
