SVM-light Version V6.02
4 # kernel type
3 # kernel parameter -d 
1 # kernel parameter -g 
1 # kernel parameter -s 
1 # kernel parameter -r 
10# kernel parameter -u 
0 # highest feature index 
1000 # number of training documents 
574 # number of support vectors plus 1 
0.69168316 # threshold b, each following line is a SV (starting with alpha*y)
-4.7008427040718875409945620713614e-05 #GCCUAGAAAUUGCGUAGCAGCAAGAGCUCGACCCGCUGCUUGAGGUGCGGCUGCUAUGUGCU
4.7008427040718875409945620713614e-05 #AUCAGACCUACCCCUGCCGUAGCUGCGAAACAUUAUUGGGCAGCUACAAUAAUGUUUCCGUA
-4.7008427040718875409945620713614e-05 #GCCGCCCUGUAUAGCUAGUAACAAAAAGACCAAAGGGUACCAACGCGGCAGCGGCGAGGAUU
4.7008427040718875409945620713614e-05 #CACAAGGAAGAUGAAGGGACUACCAAUCGGGUGUUGAAAUUGGUAGUUCAACACCCGAAAAU
-4.7008427040718875409945620713614e-05 #GCGGAUCGGCGACCUGUUACCUAAAAAGAUGGGCGAGUGCGCCUUGACAAACCAGCAGUAAA
4.7008427040718875409945620713614e-05 #UGUACGAGGGUUCAAGAAUACCUGGACUGGCACGUAGUGUCCAGGUACUACGUGCCAGCAUG
-4.7008427040718875409945620713614e-05 #AAGUGAGCCGGGAACCCAUGCAACAAGUAUGAUCUACAGAACGACCCACGAUGAGGAGUAAA
4.7008427040718875409945620713614e-05 #CUAUUAGUCUCUUCGCUCACUAGUGAUUACUCGUAAUGUUCACUAGUAUUACGAGUAAAAAU
-4.7008427040718875409945620713614e-05 #AUUACCGGGGGGCGCAACCGUGAUUCAUGUUGGCAUUGAACGGAGUUGGGCAGCCAUCUAGG
4.7008427040718875409945620713614e-05 #UCUAAGACAAUCGUGUUUCGAGGAACUAGUCAAGAACUCGUUCCUCGGUUCUUGACUAGUGU
-4.7008427040718875409945620713614e-05 #UACGUGUUAUGGGAUGAGAAAGUAUCAUCCGGGUGAAAUAUAGAAAAUGAUAGGAAUACAGU
4.7008427040718875409945620713614e-05 #UAACUUAAUGAUGCCAUACCAUCAGGCCUUGCUGACAACCCUGAUGGUGUCAGCAAGGUGCC
-4.7008427040718875409945620713614e-05 #UCCUUGGCUGGAAGUACCACAAAGGCUGCUUGGGUACACAAUAAACACAUAAUAGAGAGUUA
4.7008427040718875409945620713614e-05 #UCUAGCCGGUCCUAGGGAUCGAGCCCUAUACCGGCCUACGGGCUCGAAGGCCGGUAUAAUAC
-4.7008427040718875409945620713614e-05 #GUCCGAUAUAUCUAUAUAGACUCGACCGAUGAGUCCUGCGAAUUACCUCUUACGGGUUCCGU
4.7008427040718875409945620713614e-05 #AGUGAUUUCGACGGCUUGGGAAAACGAUUAGUAAAACUCCGUUUUCCGUUUUACUAAUAUCC
-4.7008427040718875409945620713614e-05 #GCGGUCCUCCGGUCGGGUACGUUCUUACCUUCAAUUGGCUUUAGGGCGUCUAGGCUACGGGA
4.7008427040718875409945620713614e-05 #ACUGUCGCAUUGCGCAACGCUAGUACUGUUACGCUUAAGGUACUAGCUAAGCGUAACAUCAA
-4.7008427040718875409945620713614e-05 #CCCAAAGCGGCAUCCGAAAUAGUGCCUAAAUCCGCCGCACUGCCUAUUACGAUAAGCUGGUA
4.7008427040718875409945620713614e-05 #CGUCCUGGAGAGAGGUCGGAACUCCAAAUGAGCUCUCUAUGGAGUUCGAGAGCUCAUUGAUC
-4.7008427040718875409945620713614e-05 #CGCUCUUUUGCAUAAUGCUCGCCAUGUUUAUGGGAUACCUUAUGUUAAGUGCGUCAAGCUGG
4.7008427040718875409945620713614e-05 #UUCACCAGGUCAGUGGUAAAUUAUGACAUUCGCAGACGGUCAUAAUUGUCUGCGAAUGCUUC
-4.7008427040718875409945620713614e-05 #CACUUAGGUGACCGGCACGCACUGGGGGCAGAAUCUUUUCAUUCAAAACACCCAUUGUAUUG
4.7008427040718875409945620713614e-05 #CAGCCAAGGACCCAGUCAGUCUAAGUUUUGAAAACCACCACUUAGACUGGUUUUCAAAGCAC
-4.7008427040718875409945620713614e-05 #UGCUCCACUAUGGGACUGGCAGCGGUAAAGCUCACACGCGGGCCCGAGCACCGAUCUUGUAU
4.7008427040718875409945620713614e-05 #UCCCACCUCCAUUACUCAUAGCUAUAUCUGGGUUUUGACUAUAGCUACAAAACCCAGAUCCC
4.7008427040718875409945620713614e-05 #UCAGCAGAAGAUGCUCUCGGACCCAAGCACUUAUACUGCUUGGGUCCAGUAUAAGUGCUCCC
4.7008427040718875409945620713614e-05 #CUUAGUACGUGACACACGGCGCAACAGCCGAUACUGGUCUGUUGCGCCCAGUAUCGGCGCUG
-4.7008427040718875409945620713614e-05 #UGUUCAGGCUUCUGGGCAAAUGUUAGGUAGGUCACUAUACGUAAAAGCAACUGGGGGCUGUA
4.7008427040718875409945620713614e-05 #CUUACACAGAAAAAUAAAUUGUAGAGUUAAACUCCACAACUCUACAAGUGGAGUUUAACAAC
-4.7008427040718875409945620713614e-05 #CGGAUGAAGCAAUCGCGCUCCAUCAGCCGGCUCCUGUCAAAAAUCAGUCAAUUUGUACGAUC
4.7008427040718875409945620713614e-05 #GACGGUAGUCUCAGAAUCGCGUACCAAGGAUCUAUAUCGUGGUACGCAUAUAGAUCCUCAAA
4.7008427040718875409945620713614e-05 #AGGUAUCAGAAGGACUUGUGCCCGAUAUAUCUUUCUGACAUCGGGCACAGAAAGAUAUCACC
4.7008427040718875409945620713614e-05 #GUUAAUGCGGACUGAGGGCGCUUAUGUGAGUGACGUACGCAUAAGCGUACGUCACUCAGUGU
-4.7008427040718875409945620713614e-05 #UAGGAGGUGACAUCUGCUCAGCAAGCGCUGACGGUGCAUUAGUUCCUAGGAGCAGUGCAAUA
4.7008427040718875409945620713614e-05 #UGACCGUAACAGGUGCACUAGAAACUUUCGAGCAUAGCUAGUUUCUACUAUGCUCGAAGUUC
-4.7008427040718875409945620713614e-05 #GGAGCAUUCCACGCUUAAGGAUCUUCCAUAUAGCGCCUGUGGGGUAAUAGAAUCUCUGGCAA
4.7008427040718875409945620713614e-05 #UGUACGAGACUAACUUUCACGGCUAACAGCAAUUUAUUGUUAGCCGUAUAAAUUGCUGUGAU
-4.7008427040718875409945620713614e-05 #GUAACACGGCUCGACCUAUCAAAAAACGUACUCCUACGGCUAAAUCCCGGAGAAAAUCGCGU
4.7008427040718875409945620713614e-05 #UCUCGUGAACUUGCAUCCCGAGAGGACUUGCCUGUAUAAUCCUCUCGAUACAGGCAAGUCCC
-4.7008427040718875409945620713614e-05 #CGCGUAGAUUUUUAAACGCAUAUUGUCUUGAGCCCGCUAGCUAACAAAGCAAGCUCGAGAGG
4.7008427040718875409945620713614e-05 #AGCCGUCGGCCCGGAGUAUCGGGCUGGCUCGCUUAUCCACAGCCCGAGAUAAGCGAGCCUCA
-4.7008427040718875409945620713614e-05 #GUUGUCAUUUGAUGAGCGGCACUCAAAUCAAUCCUGAUAUCAUGGCCUUUGUAUGAUACGAC
4.7008427040718875409945620713614e-05 #UGUCUAUCAGUCAGGUGCAUUGAGGUUGCCAGUUUCUGUACCUCAAUAGAAACUGGCACCCA
-4.7008427040718875409945620713614e-05 #GUGAUCGAAUAAUUGAGCGGUGAUGUAGGGAGAAGUCGUCAUCUGUUCGUCUACCAGCGCUG
4.7008427040718875409945620713614e-05 #GGCUCGCUACACUAUGUGUGCGAAGGAUCUAUAGCGCUACCUUCGCAGCGCUAUAGAUCGAU
-4.7008427040718875409945620713614e-05 #UGCGGACACCCAGUUCUUUCACCGGAUAGGGACCGCCUCUGAUGUGUGACUAUGGAGAACAA
4.7008427040718875409945620713614e-05 #UGCAGAAGCUGUGGUGAAUGUCACUGGGUGGGCUGUUGACAGUGACAAACAGCCCACCGAAU
4.7008427040718875409945620713614e-05 #CACUUAAUCCCCAACGAAUAACACGUACAUCCUAGCAGGACGUGUUAUGCUAGGAUGUGUUU
4.7008427040718875409945620713614e-05 #GGACGAAGGCUGCGGUGACUCACCCGCCAGGGCGCCGCUCGGGUGAGCGGCGCCCUGGCACC
-4.7008427040718875409945620713614e-05 #UCUCCGAAAGGCUUACACUACUUACUUGCACGGGUUCCUCUAACCUACGUCUCGCUUGAGGC
4.7008427040718875409945620713614e-05 #CUUAGUGCUUUAUCCAUAUUGUACACACAACCCGCUACAGUGUACAAUAGCGGGUUGUUGUU
-4.7008427040718875409945620713614e-05 #UAGUGGGCCGCACCAAGAUCAAAUUCGAACGCCCGUUCAGUCAGUAAAAUCACGCGUUGUGC
4.7008427040718875409945620713614e-05 #UCCUGGAAAGGCUAUACGGACCGCAAGUUACCCAAUAACUUGCGGUCUAUUGGGUAACAGUC
-4.7008427040718875409945620713614e-05 #CGCAUUCUCGUACAGACAUAGAUCCCGCUUUGUGGCACGCUACGAUAGUUGACUCAGUGAGA
4.7008427040718875409945620713614e-05 #UGUCCAGUCACAGUUGGGAUGCCGGGGUAGCCCGAUGGCCCCGGCAUCAUCGGGCUACCGAC
-4.7008427040718875409945620713614e-05 #GCAAUCGGCUCUCAGAGGUCCCAGUUAAGUGCGACUCCAAGCCUCUUUUGGGUGGCUGGAAC
4.7008427040718875409945620713614e-05 #GAACCAACCAUCCAACCUCCCUAGUACACGUUGUGCCAAUACUAGGGGGCACAACGUGAAUC
-4.7008427040718875409945620713614e-05 #AGAAUACAGCCAUUCUGCCACUCUUGUGGCAGCUGGUCGAAUAUCCCCAACGUAACGUUCGU
4.7008427040718875409945620713614e-05 #AUGAGCGAACGGCGCGUCUGACGCCGACCUAGCGGUUGUCGGCGUCAAACCGCUAGGUUUUA
-4.7008427040718875409945620713614e-05 #AACUAAGGUGCGAAAUAAUCGCCCAAGAUAUUAACAAUGUACAUCUCCUGUAUGGUGCCACG
4.7008427040718875409945620713614e-05 #AGGACUCGUGGGACAAUACGAAACACCUGUGGACACGCUGUGUUUCGCGUGUCCACAGAUAA
-4.7008427040718875409945620713614e-05 #CAUUGGGCUUCUCUGUGACUAAUGGCCAAAAGAUAGUGCCUAAGUGAAAGUAGGACUCGUCG
4.7008427040718875409945620713614e-05 #AAGUAUCAAACCGGCUUUGUUAUGUUUGCGCCGCAAGCAAACAUAACCUUGCGGCGCAGCGU
-4.7008427040718875409945620713614e-05 #AAUGUAUUCUCGCCAUCACGACCCCCGGAGGAGUGUUUCGCACACCUAGGGGUCCGAUCAAC
4.7008427040718875409945620713614e-05 #UCCAGAAUGGUUAGGAGUAAGGGCAGUAUAUCCGGUAGCCUGCCCUUUACCGGAUAUAGGAU
4.7008427040718875409945620713614e-05 #AAGGUGUCCUGGAGUAGGGUACCAUGGUUUAUCGAGCUCCAUGGUACGCUCGAUAAACACUG
4.7008427040718875409945620713614e-05 #UGCCUCCUGGCUCGGAGACUAGGUGUUAAGGUCUGGGUAACACCUAGCCCAGACCUUAGUCA
-4.7008427040718875409945620713614e-05 #CAGAGAUCGUCCGUAUGCUCACUCUGUCCUGACGAUGCGGGUUGGUACAUAAGCCAUACGUU
4.7008427040718875409945620713614e-05 #CCGCGGAUCGGGAUACGCAGUAAUAAAUACUCAUAAAAUUUAUUACUUUUAUGAGUAUCAUC
-4.7008427040718875409945620713614e-05 #GUAAAACCAAGUGUUGUAUACUUGAUCCACUGGUGGUCUCCUGUCAAAUUAGGUGGGUUGGC
4.7008427040718875409945620713614e-05 #UCCGGACUUCAAGAGGUGCUCGUUCUAGGUUAAGGGGUAAGAACGAGCCCCUUAACCUAGUA
-4.7008427040718875409945620713614e-05 #CCUAGUAGUUAUUACGGGGAAAUAGAGGGCCUAGUGACCUGGCAGAACGGGAAAAGAACGCA
4.7008427040718875409945620713614e-05 #CAAACCACAUAUAAUUUCUCCUUACAGGACUCCUCAGCCUGUAAGGACUGAGGAGUCCAGGU
-4.7008427040718875409945620713614e-05 #GUGAUACAAUACCAUACGACUUCAACUAGCCCGCCACAUCCUAACUAAAAGUUUCUGGUCCA
4.7008427040718875409945620713614e-05 #UGAGGUCUUGGCUCUUAUGUAUGACGUAGCUAUUGAGUUCGUCAUACCUCAAUAGCUAAUAC
-4.7008427040718875409945620713614e-05 #UCCCUUGUUAAAUAGAAUAGUCGAGGUACCCGUUUCCAAGUAGCACCAACAUAGUACCAAAC
4.7008427040718875409945620713614e-05 #GCCACGGCGAGCUUUGUGGGUCGCGGUGGCCCUAGGGCUCCGCGACCCCCUAGGGCCAGCAU
-4.7008427040718875409945620713614e-05 #CUGGUUCGGUACAUAAUCACUGUUCCCAGACCUUUCGGUCACAAGAUAGUGAUAUGCGAUGC
4.7008427040718875409945620713614e-05 #AGACCAGAAAGGCGUCUGUUAGUCAAACAUUUACGGCCGUUGACUAAGCCGUAAAUGUGCGC
-4.7008427040718875409945620713614e-05 #UCACCGAGCGAACUGAAGGCAAAGUGCCUGUCUCUAUUGAAGACUGCUGUGGUGCGCAUAAG
4.7008427040718875409945620713614e-05 #ACCACAGCGUGCAUGUCCCACCCUUGGUUUCCGACCUUACAAGGGUGAGGUCGGAAACACAC
-4.7008427040718875409945620713614e-05 #CCUGUAUGAUCACCCUUAGGACCAGAGUGUAUGUUAUCGUGUUUGGGAGCGGACAACGUUAU
4.7008427040718875409945620713614e-05 #AAUGUAUCGGAGUGCCAUAUUAAUCGGACGCCGGUAGGGCGAUUAAUCUACCGGCGUCGCGC
-4.7008427040718875409945620713614e-05 #AGCUUGUCGUUAAUGCUGUUCCCUGUGUCAUGGGAACUGUCACGCUUGACAGACAGGAAUAU
4.7008427040718875409945620713614e-05 #UCCUUGAGUCCGUUUUCCGUGGCCGAAGCGGGUUAGAACUCGGCCACUCUAACCCGCUUCUA
-4.7008427040718875409945620713614e-05 #CAAAUCAUUAAUACUCUACGCUUAGUGAUAUGUCACAAACUAGUCAGAUUGGCAGUCCUGGG
4.7008427040718875409945620713614e-05 #GAAAGAGUGGGUAGGGAUUCAACCUCCAAUGGUAGAACCGAGGUUGAUUCUACCAUUGGUUA
-4.7008427040718875409945620713614e-05 #GAUUAUCGACGAUCGUGUGAUCUGCCUAAACAAGUAAGGAUGAGUAAUUGUGCGCAUAACAC
4.7008427040718875409945620713614e-05 #UUGCAGGGUCAGUGCCUGCUGUAUAAUAACUUGAGGGCCUUAUACAGCCCUCAAGUUAAUCG
-4.7008427040718875409945620713614e-05 #UUAUUAGUAUCCCACGGGCUGAAUGUGAUGGCUGGCGGAGACUGCGCUCAGUUGGAACAUUG
4.7008427040718875409945620713614e-05 #CUCCACAUAAUGGAGCAGCGGGCGAUUGAUCGCAUGCUAAUCGCCCGGCAUGCGAUCACUUU
-4.7008427040718875409945620713614e-05 #AGUUCAAAUCGGCGCCCUCGCGCGGUCCUUUUACCGCGGAUCGACCCAGAAUGCUCGGAUAC
4.7008427040718875409945620713614e-05 #AGGCGGGGUACUUCUUCUGGAGUAAAUCUGUUCAGUGCUUUUACUCCCACUGAACAGAACGC
-4.7008427040718875409945620713614e-05 #AUCAAAAUUGGUGAUGUAUUCUCUUACCAGCAAAAAUUCCAUGGUAGCAAAGUCACCCUCUG
4.7008427040718875409945620713614e-05 #CCCCUGGGCACUACCAUGCGCGAGAUACGGGCCCAGUGCAUCUCGCGACUGGGCCCGUGGAU
-1.508526455176159618634668113657e-05 #GUUUGACUGGGAUCGUAGGGCAAGUAGUGGGCUUAAUCCAUUACGGAGGGCUAGUUGACCAC
4.7008427040718875409945620713614e-05 #ACUACCAUCCUAGUCUGUCUUACGAUUAACGAAAAGGAAAUCGUAAGCCUUUUCGUUAUGCU
-4.7008427040718875409945620713614e-05 #UACAACUAAUCAAAGCCCGAAGGGGCGUUAUCAGCACGACACCUCUGAGCAGUACACCUGCG
4.7008427040718875409945620713614e-05 #CUAUCGAGUGACUCGUUACUAUAAAUAAAUUCGUGUAGUAUUUAUAGUACACGAAUUUUCUA
-4.7008427040718875409945620713614e-05 #GCUGGCCGCUGCUCGCUGCAGUCUUGGGGGCGUGCUCUAACGCGUCCGUAGAUUCCUUUAAG
4.7008427040718875409945620713614e-05 #AUAACAUAAGAAACCAAACCCUAGACAGCGAGAUGCUUCGUCUAGGGAGCAUCUCGCUCAGC
-4.7008427040718875409945620713614e-05 #ACGGCCGGCUAUACCGAGCUCGCGGAUUCAGCCCUAUUGGCGAGCCCCUAGAGUGGCUAAUG
4.7008427040718875409945620713614e-05 #CCAUGAACUACAACGCCAUAGAAGUUACAGCCUCAACAGAACUUCUAGUUGAGGCUGUGUUA
-4.7008427040718875409945620713614e-05 #AUGUCGUCUGUUCGUGGUCCAAGACUGCCAACUAGAGACAAGUCCGCUAAGUAGUCAAUCAU
4.7008427040718875409945620713614e-05 #CAAGACAUAGCCAACCCGGGAUUGAGGGCGUAAUGAGAUCUCAAUCCCUCAUUACGCCGGGU
-4.7008427040718875409945620713614e-05 #CGCCAUUUUAGCUGGGCGAACCAGGGGUCACUGAGGCAUGAACUGUACAUCCGCCCUUAAUC
4.7008427040718875409945620713614e-05 #UCAGUAUCUCAUAUGUCAAGCUAAUUCCCUGGGGCUGAGAAUUAGCUCAGCCCCAGGGACAC
-4.7008427040718875409945620713614e-05 #GCGCAGAUUAGUAGGGGUAAUCACAGCUACAAAGCAGCUACUUGAACGUCAGAAUUGGCGUC
4.7008427040718875409945620713614e-05 #AUCCACCACACUGCUGGCAAAGAUGCCUUAUUUGGUCCCGCAUCUUUGACCAAAUAAGACAC
-4.7008427040718875409945620713614e-05 #GCGAAAUUGUCUACGGUUCGUCGUGAGCGUUGGUGGUUAACCUCUAUCUAUGCAACUGAAUU
4.7008427040718875409945620713614e-05 #AACAUGGCAUUAUAUCGAACAGAUACAGCUACUGGCCCUGUAUCUGUGGCCAGUAGCUCGCC
-4.7008427040718875409945620713614e-05 #UGGAUAUCUUAUGCAGUCCGUCUUUCUAACGUCCUGGCUAGCUCAUUCAAUUCCCGAGGACG
4.7008427040718875409945620713614e-05 #UCAGAAGUUACUUUUAUUGUUACCCAAAGACACCACCGGUGGGUAACGGUGGUGUCUUGAUU
-4.7008427040718875409945620713614e-05 #GUAGCUAAGUUGAGGGUAAUGUGGAUUUAGAGAACCUGCUAAAAGGAAGACCUUUUGGCGCG
4.7008427040718875409945620713614e-05 #AGGAGAUGGUGGCGCAGUGAUUGAGAGUACGAUCAUCUAUCUCAAUCGAUGAUCGUACUCGU
-4.7008427040718875409945620713614e-05 #GUACCUAUAUACAGUGCUGAAACAGGCGAGCGUCCGGCAGGAUAGCGUACUACGAUCCUGUG
4.7008427040718875409945620713614e-05 #GUACACAGUGCGUCUUCUGACGGUAUUCUUUAGUGGAGCAUACCGUCUCCACUAAAGAUCAA
-4.7008427040718875409945620713614e-05 #UUAAUCACUAUGUAACUAUGAGCUCUCGAACUUGCCUCUGCCCGCCUGCGCCCAAUUCACCC
4.7008427040718875409945620713614e-05 #ACCACAUGGAUCGAAACCUAAUCUCCUAUCGUAUCGUGCGGAGAUUAACGAUACGAUAAGAC
-4.7008427040718875409945620713614e-05 #GGUACAGAGCGUGACGGAGUAAUUGGCAUAAUGUUUCAUUCUCCUAUAUAUUUGCACAAAUA
4.7008427040718875409945620713614e-05 #GGCUAUUCAAUUAUGAAUUUGCCGGGCACCUUUACUUGACCCGGCAAAAGUAAAGGUGUGUG
-3.6092210888134103427982851686195e-05 #AGCCUAUACCGAUUUGUCAGUUUUUGACAAGAGUCACAUACAAGUUCCGCCUAGCUCGGCGG
4.7008427040718875409945620713614e-05 #GAACGAUGCGAAGGGGAACGCUCAACGGGUUCUUAACUAGUUGAGCGGUUAAGAACCCAAAA
-4.7008427040718875409945620713614e-05 #UGUGAAACCAAAGUGCAUUGAGUUGAAGUUGCAUUAUUCGCGAUAGGUAUAAAUUGUCCCGU
4.7008427040718875409945620713614e-05 #CAAAAAUCCGGGACUAAAUCUUGUGCAAUACGACAAGUCGCACAAGACUUGUCGUAUUUAUA
-4.7008427040718875409945620713614e-05 #GCGGCUGGUUUUUACUCCCAUGUAGUCCUCUAAAGGUCCGAAAUACCCAAGUGAUCCAUGCC
4.7008427040718875409945620713614e-05 #GACCUUAGAGAAAGUGCUGACGAAGUCGCCUCCGAAUAGACUUCGUCAUUCGGAGGCGUAAU
-4.7008427040718875409945620713614e-05 #CGUGCACAGGGACUGUCGUUCUUUCCUGUAAGGUGUCUCUAUUCCAAUGUCUCGGUUAAGAA
4.7008427040718875409945620713614e-05 #AGUAGUUUCCGGGUCAUACUUUCCGCAUACUAUCAAAUUGCGGAAAGUUUGAUAGUAUCGAC
-4.7008427040718875409945620713614e-05 #GAUGAUCAGGGCCGCGUGCACGAGUCGGGCUCCGUCAGCACCCUUUACACGCUGCCUUUAGG
4.7008427040718875409945620713614e-05 #GCGGUAGCUAUUGUUAUGUGUGCAUAUGAAGGCCCACUCUAUGCACAGUGGGCCUUCAGCAA
-4.7008427040718875409945620713614e-05 #UCUGAUACGUCGCCAUACCUAGCCAAGUUCGGUUCUCCGCGUUUGUCAAUUAAGCAAUUUGA
4.7008427040718875409945620713614e-05 #UGGGAAAGUCUAGUGUGAUUGAAGUAGAGGGACCGCCACUACUUCAAGGCGGUCCCUCACGA
-4.7008427040718875409945620713614e-05 #CUCAAACUAUAUAGUCCACGUAGAACAGGUUUCGCCGAGACGUCCGUAGGGAGGAGUACAUA
4.7008427040718875409945620713614e-05 #CGUUUAGCAUCCGCGAGUGUUUGACGAUACUCUCGGCCUCGUCAAACGCCGAGAGUAUCGGA
-4.7008427040718875409945620713614e-05 #ACAGCGUCGCCGGAUUUAUAACUUACCGCGGCUGCGGGCCCACUUGCCGACGCGACUCUGUU
4.7008427040718875409945620713614e-05 #GGUACUAUGUGCGAGAAUUACCUCUCACCUAUACUGGCAGAGAGGUACCAGUAUAGGUGGAU
-4.7008427040718875409945620713614e-05 #GGCCCCGGAAUACCAGAAUUAUGCCCGAAAGGGCUUAAAAUUAGGACGUAUUUAAGGGGGGG
4.7008427040718875409945620713614e-05 #GGAUAUCGCUGAGAUGCCAUGACGGCGAGGGCCGACUCCGCCGUCAUAGUCGGCCCUCGGUG
-4.7008427040718875409945620713614e-05 #UUAUAAAGUUGUUGAUUCAGACAAGCAGUAAGUAAUAAUUUACCGCGAUGGUCGCUUCUCCU
4.7008427040718875409945620713614e-05 #UCCCGACACCUUGACACGGGGACGUUCUGUGUGUGGUUGAACGUCCCACCACACACAGGAAA
-4.7008427040718875409945620713614e-05 #GUGUAACAGCGUUCACAUAAGGCCCCUAAGGAAGUAGAUCCAGGCGCGACGAUUCGGGGACC
4.7008427040718875409945620713614e-05 #GUCUCCCGAGUCCAUCUGAGUGGCGACUCCGUAUGCAUUUCGCCACUUGCAUACGGAGAACC
4.7008427040718875409945620713614e-05 #AAGGACAGUACGGUCGGAAGCGUUUACACUCCCUUCAUUUAAACGCUUGAAGGGAGUGUCGU
4.7008427040718875409945620713614e-05 #AGGCGCCGCAAGUCAUAUCGUCCCUUAAGAGGGCUGUGCAAGGGACGACAGCCCUCUUGGCC
4.7008427040718875409945620713614e-05 #GUGGCUUCGGUAUACUGUACACUGCUUUUACACUGACACAGCAGUGUGUCAGUGUAAAUGGU
-4.7008427040718875409945620713614e-05 #ACAUUGGCCCAAAUAAAGUCCAGGUGUGGCUGUUACUAUGCUACCAGCGAAUUAUCGCCCAG
4.7008427040718875409945620713614e-05 #GAGAGUCAGGGCCAUCAUGAAUAGCUCUCACUUUUACGUAGCUAUUCGUAAAAGUGAGCGAA
4.7008427040718875409945620713614e-05 #AUAUUAUGGACCCAAGUGUCGGUGAGUGCGGCUAACAUCCUCACCGAUGUUAGCCGCAGUAC
-4.7008427040718875409945620713614e-05 #CCGCGCGAAGUCGACGUUGGGCACUCGUGGCUUUGAGCAACUCUUAAGUGCACCCGUUAAAG
4.7008427040718875409945620713614e-05 #GACAUAGUUGGCAUACAUCACGCCGUAUUCAACCAGCGAACGGCGUGGCUGGUUGAAUGCAC
-4.7008427040718875409945620713614e-05 #CUUAGAAUCGUGGGUGCGACGUGAUUUCGUCCCGCUGGCUCGAUCCAAUAGAUCACGCACGC
4.7008427040718875409945620713614e-05 #CAUUGCGAGUCCCAGCCCUUUGGGUGCAAAGGAUAGGGGCACCCAAACCUAUCCUUUGCACU
-4.7008427040718875409945620713614e-05 #AGGUCAGCUCGUUCCACCUUUGUCUACCAUCAUCUGCACGCUUAAGACUUGCUAUCUGAUAG
4.7008427040718875409945620713614e-05 #UUCGCUGGCUCUUUGUCCCGGAAUCAGACUAGGCCUGUUUGAUUCCGCAGGCCUAGUCUCGC
-4.7008427040718875409945620713614e-05 #UGCCUGUACCUAAAACUGAAUAUAAUCAUAGCGUAAACUGACGAGGGACGUAGCAGACGUCC
4.7008427040718875409945620713614e-05 #AGCUCGUAGGUCCAGCAAGCCCAUCAAUCGACGCAUUUUUGAUGGGCAAUGCGUCGAUAACG
-4.7008427040718875409945620713614e-05 #ACGAAUUAUGAUGCCCGGCAUAAGGCAGUGCCUUCCGGCACGCCUAAAGCUAGUACGAUAGA
4.7008427040718875409945620713614e-05 #AAGUGCGAGAUGAACCUUUACGUUUGAAAGUAGUCCGUCCAAACGUACGGACUACUUUCUAC
-4.7008427040718875409945620713614e-05 #CCUAUUGUACUCCUACCAAAAGGAACCUUAAGCCAAGGUGUGUAACCCCCCGUCGCACGUCA
4.7008427040718875409945620713614e-05 #GCCGGGGACGGCGACUAGAUUUUAGAGCACUGAGGGCCGUCUAAAAUGCCCUCAGUGCUUGG
-4.7008427040718875409945620713614e-05 #ACCCGUCAGCGUUGUCCAGUUUCUUAAUUACCGAACUCCUACCUUAAGAGAUACCUGCGAGU
4.7008427040718875409945620713614e-05 #AUGCGGAUGGACCGACAGGCUGAGGCAUGCCGGUUCUUGGCCUCAGCAGAACCGGCAUAUAC
-4.7008427040718875409945620713614e-05 #GUGAUAUUAAUUGAUCGCAAACGCUCGUAAGGUGGCGAGGUAAAAUCAGCAAUACCCUGCUG
4.7008427040718875409945620713614e-05 #UGUUCAGUAUGUCUCCCCAACACAGAAUAAGUAAGCACGUCUGUGUUUGCUUACUUAUUAGC
-4.7008427040718875409945620713614e-05 #CUCGGACGUAAUCCAGGGUGAGACUGAGCGGAUCAACCGGCGUACUGUAUAAAAGUGGAUGA
4.7008427040718875409945620713614e-05 #CUAGUUGCGUUACCAGCUAGGUAUGCACGAGCCAUGUUUGCAUACCUACAUGGCUCGUACCA
-4.7008427040718875409945620713614e-05 #CCGGGCAACCUUAUGGAUUAUCCCCACGAGUGUACAGCAUAUGAGCGGGAGACCGUCUAGUC
4.7008427040718875409945620713614e-05 #UGUGGGACCAAAGAACCGGGUAGUCACUCAAAGUGCAGAUGACUACCUGCACUUUGAGCAUC
-4.7008427040718875409945620713614e-05 #CAAAUGCUGCGGACCUGAAUCGACCAACCGGAGGAACCUUAAUUGGCCACGCUGAGAAUCGA
4.7008427040718875409945620713614e-05 #GUGUACAGGACAGCCAUGAUCUAUUAUGACCGAUAAGUGUAAUAGAUCUUAUCGGUCAGUUG
-4.7008427040718875409945620713614e-05 #ACUACCAAAUAAAUAUUAAGAGCAUGCAAAAUGUUUGUUGCUAGCAAGAACAGAUAGGUAAU
4.7008427040718875409945620713614e-05 #CAUUACGAACUUGCCCUCUACACAGUAACCAUCCCCAUCACUGUGUAUGGGGAUGGUUAAAC
-4.7008427040718875409945620713614e-05 #UUCGCUCCGAUGCCCGCCAGACGCCCAUGAAUUCAGGCUGGCCUAAAGCUCGGUUUAUCGUC
4.7008427040718875409945620713614e-05 #GGUUACUGGCAGCGGUCAUAGCCGUCGUGAACGUAGGUGGACGGCUACCUACGUUCACGAGC
-9.2814079238364465468174788198574e-06 #CGAAGGUCUGGCGUUUGCUGUGAUGCCGAUGCAGGGCACGAUUGCCAUAUUCUUGAGUGGCG
4.7008427040718875409945620713614e-05 #UAUAAUGGAGUAAGAUUUGGUGAUCUAACCUGCCGGACCAGAUCACCUCCGGCAGGUUAUAA
-4.7008427040718875409945620713614e-05 #AAUUAGAGGAAUGAGGAACUUUUGACCAAGUAGCUGCCCUCCCCCCUCCGAGAUCUAAUAGC
4.7008427040718875409945620713614e-05 #UAUCGAAGACGAUUUGUAAUAGAUGCUAUAACACAGCACGCAUCUAUGCUGUGUUAUACCUC
-4.7008427040718875409945620713614e-05 #UUCUAGGAGGUAAACCCGCACGACUGGCCCGGACAAUGAUCCUCCGAACCAAUACCGUAUAA
4.7008427040718875409945620713614e-05 #UCCGGUUGAAAAUGCCAGCACCCACAACAGUCUGUAUCAUGUGGGUGAUACAGACUGUUGAU
-4.7008427040718875409945620713614e-05 #UAGGCGAGCAAAUAAUGUCAUGACGGGUCGUAGAGUGGAUGUUUUUCUCAUGGCUGUUAGAU
4.7008427040718875409945620713614e-05 #CUAGAGCUGAGGCCCGGAGACCUUACGAUUGGCGCCGAGGUAAGGUCCGGCGCCAAUCCUCC
-4.7008427040718875409945620713614e-05 #CUAGACGUAGUUUGACGGUGCGACUGAUGCUUGUAGAGUACCUGUUUAUGGGCGUGCCAUAC
4.7008427040718875409945620713614e-05 #UCAGAAAUCGUAGCUUUGCACGCUAUGAAGCCUCUCGUGAUAGCGUGCGAGAGGCUUCUAAU
-4.7008427040718875409945620713614e-05 #UCCCGUUAUUGCACACCGUCCUUUCUAUAACUGAGCCACGUUUUACGCUAAGCCAAGAUGUG
4.7008427040718875409945620713614e-05 #GACUUUGCUAGACCUCCUAGGUCAGUUUUGAAGCCAAUCACUGACCUUUGGCUUCAAAUUCU
-4.7008427040718875409945620713614e-05 #ACUUGUUAGGAGGCCUUGGUGACUGCUCCGACCCGUGUUCAUUGGAAUGGCCGAGCCAAAAU
4.7008427040718875409945620713614e-05 #GUGGAGUCGAUUACCACUGAAUGGAUAGCCGUAGUACCCAUCCAUUCGUACUACGGCUCGGG
-4.7008427040718875409945620713614e-05 #AUACCUUAAUAUGUAGCCAAGGACGCAAGUUGCUUACGUCAUGACGGUUGUACUCCGCCGGG
4.7008427040718875409945620713614e-05 #GCCCGCACACUGCUAUUUACAAUUUUGGACGGUCCAACGAAAAUUGUUUGGACCGUCCAAAA
-4.7008427040718875409945620713614e-05 #AAGAUAUUUACACUCUCGCCAUGAACUUGGGAGGAAGUCAUAUGUGAACCCCGUCGAGAGCA
4.7008427040718875409945620713614e-05 #ACCCUGACCUGGGGUGAAGAGCGACUCUCUGCGCUAUUGAGUCGCUCAUAGCGCAGAGAGCG
4.7008427040718875409945620713614e-05 #GUCUUGACUGAGCUGGCUACGCCGUCGAAGCGAAUCAUAGACGGCGUUGAUUCGCUUCUAAU
4.7008427040718875409945620713614e-05 #UGAUGGUAAAAGCGGGUUCAUGGCACUCCACGGCUGCCGGUGCCAUGGCAGCCGUGGACGGU
-4.7008427040718875409945620713614e-05 #GUCACGGGACCGGUUCAGUUAAUUCCUUACAAGCAUUGAUUGUUACGAUAUCAGGCUAGCCG
4.7008427040718875409945620713614e-05 #ACAGGAAAAAUCACGCCCCCGUGAUGGGUGGUUGUUGUUCAUCACGGCAACAACCACCAUCC
-4.7008427040718875409945620713614e-05 #GAACUCGGCAUAUUACGAUCGCAUCGUCCGCUGCAUAGACGUCACGCCGAACCAGAGUCCAU
4.7008427040718875409945620713614e-05 #CGAGAUGGCCGGAAGUCUCUAAUGAGUAUUAGAUCACUGCUCAUUAGGUGAUCUAAUAUACA
-4.7008427040718875409945620713614e-05 #GCCAUACUAGUGGUUUCAACAGAUAGCAAAUGCGGGACUAUCGAAAUCAUAUAACAGUAGUU
4.7008427040718875409945620713614e-05 #UUCGUAGCUUGAUGACACCCAAAAGUUCGAGUUUAGUGUACUUUUGGACUAAACUCGAGAAG
-4.7008427040718875409945620713614e-05 #GCUUUUCAGUAAGAUCGGGUGCAAUCCUCAGUCACAUUAACAAUAUGGAGAAUUACGCACGG
4.7008427040718875409945620713614e-05 #GCCUGAGAAAGGUGGUAUAAUUGCUCAACUCUAUGGUCGGAGCAAUUACCAUAGAGUUUCGA
-4.7008427040718875409945620713614e-05 #UUACCGAUCCAUAGUUAGCUUACCAUAAGGGUAAGGGGAUUACUAGCAGUUAUACUUGUUCA
4.7008427040718875409945620713614e-05 #AAACCCGAUUAGUCACUUAGUGGUCUUACUACUAUGGAAAGACCACUCCAUAGUAGUAAUAG
-4.7008427040718875409945620713614e-05 #CGCUAUGAUCCGAUUUCCACUUUAACGGCGUUGACGUUACGCCGGGUCUUACGUGGACCCCG
4.7008427040718875409945620713614e-05 #CAAAUGCGCGCUGCCCAAACGGACAUCAAAUCAUCCAAUAUGUCCGUUGGAUGAUUUGCGAA
-4.7008427040718875409945620713614e-05 #GCUUUGCUCAGCAUGAUCGCGCAAAGAGGAGCCAGGAUUCUAUCUACCCUAUGACGGCGCCC
4.7008427040718875409945620713614e-05 #GCCUCUAAUUCAGGCGUCCACCUGCUACACCGAAACUUCAGCAGGUGAGUUUCGGUGUGCAG
-4.7008427040718875409945620713614e-05 #AAUGAAGGAUUCGCCGCCGGAUUAAGUACCCCCGUCGAUGCGCUUAUAGAGGUUGUAUUCGG
4.7008427040718875409945620713614e-05 #ACCUUGUUAUACCUCAGAUGUGCGGUGCGUCGAUAUACCACCGCACAUAUAUCGACGCAGGC
-4.7008427040718875409945620713614e-05 #ACUGCUAAUAGGCUCAGCUCGUUUAUUUGCCGAAGCUGCCGUUUCGCUCGAUAUCAGAUCCA
4.7008427040718875409945620713614e-05 #ACCACCGAAGACCAACCAAACUCCCACAGCAGACGCACGUGGGAGUUUGCGUCUGCUGACGG
-4.7008427040718875409945620713614e-05 #CUAAAAGGGACUGCGAUGUGAGCUAAAUCAGAUAAUAGAGGGACUGGCGAUGGGUGAUACUA
4.7008427040718875409945620713614e-05 #GGUUCUCAGAACCUACCAGGCGGGUAAGGCACUUGGCUAUACCCGCCGCCAAGUGCCUUUAG
-4.7008427040718875409945620713614e-05 #UAAGGGCACUCGAAACUGACAUCAAGAAGUUAUUGAUCAGGCGGCGUACCCGGUGGAGGAAA
4.7008427040718875409945620713614e-05 #UUCCCAGUUCGUGUGCAAUGUAGUCGGCUGCCAAUCUAACGACUACAAGAUUGGCAGCCCGG
-4.7008427040718875409945620713614e-05 #CUGGGUGCACAUGUACUGUCUCGAUACUGUUUCAACUGAUUUCACCGGUAUCCACGAAAGUU
4.7008427040718875409945620713614e-05 #ACGCUAUUGCCGCUUUUUCGACGAUGUGUUCCGUAAUUCCAUCGUCGAUUACGGAACAAGAG
-4.7008427040718875409945620713614e-05 #AACACAAUAACCGGUCUUCUACAACACCUAACUCCGCCAGGGUCCCAGACUAAUAGCCUGGU
4.7008427040718875409945620713614e-05 #UAAGUUAUGACUUCUUCACCGGACCUAUCAGGAGCUUGGAGGUCCGGAAGCUCCUGAUAGUU
-4.7008427040718875409945620713614e-05 #GACCCCAUUACGGUGGAAACUCAGGACGGACCUAAGCUAAUCGAACGACGGGCGGUAUAGUC
4.7008427040718875409945620713614e-05 #AGCUUCGACGAAUCACAUUAUUCGCUCCAGAAGCUAUUAAGCGAAUAAUAGCUUCUGGGAUG
-4.7008427040718875409945620713614e-05 #GCGGAUAAAUGCAUCCUAUAUCGUAUAGGCCCAUUAGUUGGAUGUGUCAGCUUUCUGGUCUG
4.7008427040718875409945620713614e-05 #GCAUCUUCCCUUGGUGCGCGGGCCAAUUGACCCCGUGAGUUGGCCCGCACGGGGUCAAUCUC
-4.7008427040718875409945620713614e-05 #CGUAUACCCCGACUAAGUGAUGACAAAGUCGGUAGCUUAGGGGUAAUAUAACAAAAAUGUGC
4.7008427040718875409945620713614e-05 #GAACACUGCCGUUGAGGCGAACCACUUUCUCUUGAUUUUAGUGGUUCAAUCAAGAGAAGGAA
-4.7008427040718875409945620713614e-05 #ACCAUUGGUAGCGUCUGGACUGGCGAACAAGACUAGCACGAUCGCAACGAAAGGCCGCAACG
4.7008427040718875409945620713614e-05 #CUAGCAUGCCCAUAACACGAGCAACUUAUCCGGGCCGGUAGUUGCUCCGGCCCGGAUAUCGU
-4.7008427040718875409945620713614e-05 #UAACAGCCACUUAUUAUAUGCUACCAGAUUUCUUAUAGAUUUCCCGCGAGGCAGAGGAGAUA
4.7008427040718875409945620713614e-05 #ACAUUACUGAGGCGUAAAGGUAUCGUAAGCCGUGUCGGGACGAUACCCGACACGGCUUGACC
4.7008427040718875409945620713614e-05 #ACACGGAGGUACGUGAACCAAAGCCCCGAGUAUUCUUCAGGGCUUUGAAGAAUACUCGAGAC
4.7008427040718875409945620713614e-05 #UGAUCAACUGACAAUGGAUUUACGUGUUGGGACGUAACCCACGUAAAUUACGUCCCAAUUCG
-4.7008427040718875409945620713614e-05 #GAAGCAAUUUAAAGCCCUGUACUUAAAUCUGCUAUGAUAUCACCGAACUGGCUUGCUGGGAC
4.7008427040718875409945620713614e-05 #UUCCGCGCAUCCGACCAGAUUGCGGGCCUCCCGAAGGGUCCCGCAAUCCUUCGGGAGGGUGC
-4.7008427040718875409945620713614e-05 #CGUAGCUCUGUCCGAACCUUCAGUGUCGUGCGCAGUCAGAAUCCACGCAAACAGAAACGUCC
4.7008427040718875409945620713614e-05 #GUUAAAGUUGGGGCGUAUUCUUUCAUCCAAUGUCGUCCCAUGAAAGAGACGACAUUGGGCCC
-4.7008427040718875409945620713614e-05 #CUAAUCGCAGAGGCCCGGCAGAUUCUGAACGCGGCAUUGUUGAAUCGUUUUAUGUAAAAACA
4.7008427040718875409945620713614e-05 #GCCGGUCUCUUCUCGUCGUCAUGUCAAGCUGCAUUGCGAUGACAUGAGCAAUGCAGCUAACC
-4.7008427040718875409945620713614e-05 #CAAUGGAGGUUCUGAAAGAAUACCCUUGCUUUUUCUACAGGUCUUCUUCUUGUGUAACGGGA
4.7008427040718875409945620713614e-05 #AGUAGGCUUGGACUUCUCGCGGCGGGUAGGUGCCAUUCCCCCGCCGCAAUGGCACCUACCCC
-4.7008427040718875409945620713614e-05 #GCAUCCUGCGGGCUAUGAGUUGAGAGCAUUGAGGCCCGUAGUGUCACUACGUUGACCGCAAU
4.7008427040718875409945620713614e-05 #UUGAAGAAUGUGAUUUGGGCUUGGUUACGGGAACAUCUUAACCAAGCGAUGUUCCCGUGACC
-4.7008427040718875409945620713614e-05 #GUGGCCAACUAGAUCUUAGGCGUACUAGACGAACGCAACCUCCCGAGUUCAGUUAACAGGCC
4.7008427040718875409945620713614e-05 #ACAACGAAACUACCUCGCGCCAUGAUUAGACACCAUCAUAUCAUGGCGAUGGUGUCUACCGG
-4.7008427040718875409945620713614e-05 #CGAUAUCUUCCAUAAUGUAUAGUCCCCCAUCCACGUACCUAAUUUCGAGGUGGCUUUGGUUC
4.7008427040718875409945620713614e-05 #ACGUACGAACCUCGAGAGUCAAGCGAUAUUCUAUCAGUAUCGCUUGACUGAUAGAAUAGGGA
-4.7008427040718875409945620713614e-05 #CAGCCGGCUCCUGAGGAAGAUACCUACGUUCAUUCAUUCCGAACAGCAAUAUUCAGCCCAGA
4.7008427040718875409945620713614e-05 #ACGUAUAGUAACAAGCCCAGAAGCAUGAACCAACUAGCGAUGCUUCUCUAGUUGGUUCACGC
-4.7008427040718875409945620713614e-05 #CGAAUACUCUUCGCUGCAUAAAAGGGCCGACUGCUACGUAUCGAUAGGAUAUUAAAGCGCCU
-4.7008427040718875409945620713614e-05 #GGUCUAACAUUUGAAGACCGCAACGUUCCGCUCAGAAGCUUGCAGCAAUCGGCGUCAGACCG
-4.7008427040718875409945620713614e-05 #GUUAAAGUGGCUGUGCGGCCCACUUUCUUUGAGAAGAGAGCCAUAAAGGCCCCAGGUCACGG
4.7008427040718875409945620713614e-05 #UGCCACUCCCUGGCAUUGGUAGCAUUAAACAUUCGUUAGAAUGCUACAACGAAUGUUUGGAG
-4.7008427040718875409945620713614e-05 #UAGGGUCGAUCCGAAGAAUUAUCAAAGUACCUCUUUGGAGAGUGGCCGCGAGAGGUGCCGAU
4.7008427040718875409945620713614e-05 #GCAUUUCAGUAUGGCCUGAUUUGCAGCAUCUAUUUCCACCUGCAAAUGGAAAUAGAUGCUCG
-4.7008427040718875409945620713614e-05 #AGGCCGAUAGAGAGGAUGGAGGAGGAGUGCCAUUCGUCAUUAAUGAUUGUUCACUGCUUCGG
4.7008427040718875409945620713614e-05 #UUCUCUCUCUGCCGGUGAACCCUCACUGAUGUCUCAGAUGUGAGGGUCUGAGACAUCAUUAA
-4.7008427040718875409945620713614e-05 #UGUGCGAUAACUCAUCACAACUUCAAUUAAUUGCAUUACUUUCGUGUCUUCACACCAGGUGA
4.7008427040718875409945620713614e-05 #CUUCUUAAACAAAGCCCGUAGGGAUAAUAUACCUUGGUGUAUCCCUACCAAGGUAUAUGGAG
4.7008427040718875409945620713614e-05 #UCCACCCAAGCAGUGAUAGCAUGUAUACGGCAUAUACGAAUACAUGCGUAUAUGCCGUGCCG
4.7008427040718875409945620713614e-05 #UAGGGUAUCGCACACUAGCAGUGCCUAAUGACGGUGUUAAGGCACUGACACCGUCAUUGUCG
4.7008427040718875409945620713614e-05 #CCCUUAUCUCAGCUUGUAGCCGCCUAACACGCAUACUUAUAGGCGGCAGUAUGCGUGUCGAU
4.7008427040718875409945620713614e-05 #CGCAAGCCGAGAUGGUCGUAGUUUCUGAGGACCCCCUUUAGAAACUAAGGGGGUCCUCAUAA
-2.7482184855309979196712200089081e-05 #AAUACUUCUUGGGCACAACAGGCCUCAGCUUGCCGAAUCUCCAUAUGUUUUAAAGUCGUUUC
4.7008427040718875409945620713614e-05 #CAGUCGAAGUGUAAAAUGGAAUGCGUUCCUAAUGUAGCAACGCAUUCCUACAUUAGGACGAG
-4.7008427040718875409945620713614e-05 #CCCCCAUUUCUACUGGAUUUGACACCAGGGUUUAGAAAUUGGCUAUUUCCCCGACUCCAUUU
4.7008427040718875409945620713614e-05 #AUUUUUAGUUAGCCCAAGAACAUUGCCAAUAACUUGGCGGCAAUGUUCCAAGUUAUUGAGGA
-4.7008427040718875409945620713614e-05 #GCAUUUGUACAGCCAUCGGGUCGUCUGAUUAAGUCACUCCACCCUCGGCGCGUCAAGGAAAA
-4.7008427040718875409945620713614e-05 #GGCACGAAGAACUUGUACGGAUUGACUCUUGAAUACAAGAUGCCAUGAGCGGAUGAGAGAUC
-4.7008427040718875409945620713614e-05 #AUUACAAGAUCACGCUGCGAGAAAAGUAUUGCGUCUUGAUAGCCCAGUGCUCGCCGUAGCUG
4.7008427040718875409945620713614e-05 #AUCGUCUUCAUAAGGGGCCAAUUCUUUGGAGGUUCCAAGAAGAAUUGUGGAACCUCCACAAC
-4.7008427040718875409945620713614e-05 #AGAAGCACCUUAAAGGACUCCGGCUCUGUUGCAGCGCCUAGCUGGACGCGUUCAGGGAGAUC
4.7008427040718875409945620713614e-05 #GACCCGUGAGCACCAUGUAACGCGCCGUAGCGGAUUGCUGGCGCGUUCAAUCCGCUACAUGA
-4.7008427040718875409945620713614e-05 #GUUCGCGCAUUUUACGAGUACUCUCCAAUACAUGGACCGCAAGUAUUUACUCAGACCACGAU
4.7008427040718875409945620713614e-05 #UGCAAAACUUACAAGAAGAAUGACUGAUUUGGAUGUUGGCAGUCAUUAACAUCCAAAUCAGA
-4.7008427040718875409945620713614e-05 #AGACGCCUUGGCCCCCGAGUGCAUCGGUCAGGGGUCCGGGGCUUAGGAGCUCUUGGACAGCG
4.7008427040718875409945620713614e-05 #CCGGAAAUAACUGGAGAGCACCCACUGCGGUUUAAUAUCAGUGGGUGUAUUAAACCGCAUAC
-4.7008427040718875409945620713614e-05 #CGCCAUAUGGACGGCUGGGGGAGGCAGUCGGACUCCCCGCCGAUGCCCUUUAUAGGACUCCA
4.7008427040718875409945620713614e-05 #UAUUGUACCUGAUUUUCGCCGACUUGCCUCCCCGACUAACAAGUCGGAGUCGGGGAGGGUGG
-4.7008427040718875409945620713614e-05 #CCUCACUGGUUCGCCGUCCCGCACGGACAGGCUAUCGCUCGCACACUUAGGAUACUGCGGCG
4.7008427040718875409945620713614e-05 #UAGCGAACAAAGGUAAACCCCUCGCUUAAAAUUAAAAACAGCGAGGGUUUUAAUUUUAUACA
-4.7008427040718875409945620713614e-05 #CGGUAGGCCCUAAUCCAGCCGCGACCACCAUAAACAGUCUGGCGAACAAACGCCAAAACCAG
4.7008427040718875409945620713614e-05 #GGAAAAGCCACAGAGGGGCACAAGGCAGAAAGGAGAUGCGCCUUGUGAUCUCCUUUCUGGAG
-4.7008427040718875409945620713614e-05 #AAGUGCCUUGGCACGCCUCCACAUAAAUGGAGGGUGUGAGGGUGUAUGCGUCCUACCAGUGG
4.7008427040718875409945620713614e-05 #AACGAUUAGACACAGAGCUAGUAUUUGUCAGCACCAGGAAAAUACUACUGGUGCUGACGGGG
-4.7008427040718875409945620713614e-05 #UCAUUAUGGAUCCUAAUGAAUAUGAGGCCAUACUUGUCCACGCUACUUCUCGCGCCCUAAUU
4.7008427040718875409945620713614e-05 #CCCAGGAUCACAAGCAGCUUGCGUCACUGCUCUGCACGUUGACGCAAGUGCAGAGCAGUGGU
-4.7008427040718875409945620713614e-05 #UUAUCUUGGCUGUAAGGUGGUUAAGACGGACAUCCGGGCGUGCCGCUGAACUCCUUCGAUGC
4.7008427040718875409945620713614e-05 #CAAUAUCGUCUGAAUAACAGAACAAUCGCAAAAAUUUGAAUUGUUCUAAAUUUUUGCGGCUC
4.7008427040718875409945620713614e-05 #GGCAUAAGCUUCUCACUGCUGAUCAAUUCAAUGCCUCCAUUGAUCAGGAGGCAUUGAAUGUG
4.7008427040718875409945620713614e-05 #CGAGCGACCCGGAACUAUUCGGACAUGUCGUUCUAAAUCAUGUCCGAUUUAGAACGACCGUC
-4.7008427040718875409945620713614e-05 #AAAGCUUGCGUACAACAUCAUAUGGCCCAGGAGAGUUUAGAUGCCAACUGCCGGCCUAAUGA
4.7008427040718875409945620713614e-05 #CGUGACUGUCCCCCACUGAUAUUCGGGAUUGGAACUGGACCGAAUAUCAGUUCCAAUCAUCC
-4.7008427040718875409945620713614e-05 #GGACCGCUGACCGGAAAUUGCGCCGACCGUACAAAGAGAGGCUGCUGCCUUUAGGGGUUCCU
4.7008427040718875409945620713614e-05 #UUUCUUGCUAGGGUUAGCCAACAAGCUCGCUAACGUACAGCUUGUUGUACGUUAGCGAUCGA
-4.7008427040718875409945620713614e-05 #CGCCUUGACCGUUAUCUUUCUCAGUUCAGCACCGAGAGACUGGGAAUUUCGCUAUCUACUCC
4.7008427040718875409945620713614e-05 #CCUUCCAUUAAGCCUGGAUCAACACAGUUGAAUUUAGCUUGUGUUGACUAAAUUCAACACCG
-4.7008427040718875409945620713614e-05 #UGGGAAAUUCUAUCAUCUGGUCACCUGGACCCUCUUCCGGAAGCCAGUUGACUUAGCGGCUU
-4.7008427040718875409945620713614e-05 #ACCGAUCGAGUUCAGUGAUUGUACCGAGUCUUAAAAUCGUUAGAACUGCCACGUAUAAUUCC
-4.7008427040718875409945620713614e-05 #CCCAUCGUCAUCAGACGGCACGUGCGCCACCGAUGCGCGUCAAGAAUGGGGUCAUAGGCAUU
4.7008427040718875409945620713614e-05 #GGGGACAAUCCGCGUGCAGACACAACAAUCGACCACAACGUUGUGUCUGUGGUCGAUUUCUU
-4.7008427040718875409945620713614e-05 #CGUCGGUCCCUCGCAGCAGUUUGCUCUGGUCCUGAACUCUAGGGUACGAUUUCAAGCUGCGU
4.7008427040718875409945620713614e-05 #GUGGCCAUAUACACAACUCGCCUGUAUAGGUCAUUCGCAUACAGGCGCGAAUGACCUAGGAU
-4.7008427040718875409945620713614e-05 #GUGUAUUAACAAAACGACUAGCGACUCCUGAUAACAUGACCACCAAUUGGUCUUGGCUUAAU
4.7008427040718875409945620713614e-05 #CUGCCGUUAUCCAGCAGUCCCUGAUGGAGCCUGCGUUAGCAUCAGGGAACGCAGGCUCCUUA
-4.7008427040718875409945620713614e-05 #CAGCCGCCGGUAGUUUUUGUUCGCUAAAUGCGGCUCUGAACUUUCCCGAUAUAAGUAGUUCA
4.7008427040718875409945620713614e-05 #UCAAUUUCCUUUCACAGUGAGGUGGGCAAAGUGGUAACGCCCACCUCUUACCACUUUGGGAA
-4.7008427040718875409945620713614e-05 #UGUAAGACUGCCUUAGUGUUCUUGACUCUUAGACGAUACCGUUACUAGAUUCGCUGACUCAC
4.7008427040718875409945620713614e-05 #CCCCGACAGUAGCGCGUAACGGUUGCCCAAACGCUCCGCGCAACCGUGGAGCGUUUGGUAGA
-4.7008427040718875409945620713614e-05 #CCGGGAGAUGAAUUUCGGGCUAGCUUCGUACACUGUUCCGUCGCGUUCAAAUAAGCUUUCUG
4.7008427040718875409945620713614e-05 #AGUUGUUACCUCCUUACGCUGUAGACCUGUAAAUUGCGGGUCUACAGGCAAUUUACAGAUUG
-4.7008427040718875409945620713614e-05 #GCUUCAGAACUUUUCGAGCACCAGGGGUGAGCCUAUUGUCUCGCGUCGUAAGCAGCACGGCG
4.7008427040718875409945620713614e-05 #CUACCCAGUGGCGUCAUUCAAUGACCGGUGUAAUCGGCCGGUCAUUGCCGAUUACACCAUCG
-4.7008427040718875409945620713614e-05 #GCUGACCAGAUUCGUAGUGCGAUAGAACAUGGGAGGCUGUUAGGAAGGUGUAGCACCAACUG
4.7008427040718875409945620713614e-05 #CCAGAACUCUUUGAACUAACCGCAAGCAUGUGUUGUUUCCUUGCGGUAACAACACAUGAGGU
-4.7008427040718875409945620713614e-05 #GUCUGUAUGUCGGAGUUAGAACGCACCCGCACGGGCAGAAACGACCUGCAGCCCUCAGUGUU
4.7008427040718875409945620713614e-05 #CCGUCUGGUACAGUGUGUUCCACCAGGAGUAUAGCCUCUCUGGUGGAAGGCUAUACUCCCGG
4.7008427040718875409945620713614e-05 #AGCGACAGAGGCACUGAACGCACAUUAUCACCAAUACUGAAUGUGCGGUAUUGGUGAUCACA
4.7008427040718875409945620713614e-05 #CGCCCGACUAUUUGCUGAUGUGUCCGGUCUAAAGGCCGACGGACACAGGCCUUUAGACAAUU
-4.7008427040718875409945620713614e-05 #CCACAAUAGAGGGACCCUCAUUGCAGGUUUUGGUUGUCAAGGGCAUACGCCAGCCGUUAGCU
4.7008427040718875409945620713614e-05 #CCAAGGUCUACGGCUAAAGCAUUCUCGUCUAAGAACGUUGAGAAUGCCGUUCUUAGACAUGA
-4.7008427040718875409945620713614e-05 #GUUCAAUUGGAUUCAUAGCAUUUCCGGCCUUUCCACCUACUAGCCGGCGUCAGGCUGCAUGU
4.7008427040718875409945620713614e-05 #UAAUCGGCCCAACUUGACUCAGCUCCUAUCCCCCGUUCGGGAGCUGAAACGGGGGAUAGAGG
-4.7008427040718875409945620713614e-05 #UGGAUCUCGGUCCCGGGCGCACAUCUUAGUCUUUUCGGUCCCAAAGGGUCUCACGCGAGCUU
4.7008427040718875409945620713614e-05 #GUUAACCUGAGAAAGUAUCCCGAAGGUCGACGUAGCCUGCCUUCGGGGGCUACGUCGAUCCU
-4.7008427040718875409945620713614e-05 #UCAGUCAGCAUCCGAACGAUCAUCUUUGGUGAAGGUUGAGGUUCACCGUCAGCUCAGGGCAC
4.7008427040718875409945620713614e-05 #CCCUCGCGUCACAUCUCCUUUUUAACGCUCGGUCAGUCCGUUAAAAAACUGACCGAGCGAGU
-4.7008427040718875409945620713614e-05 #GGGACCGAUUGCACAUCAGGUCUUGGUUGUUGAUGGGCGAACGAAGCCGUUAGCUCUCGUAU
4.7008427040718875409945620713614e-05 #GCAACCUAUAAGUCCCAUGUAUCAUGGACACUCCCAAGACAUGAUACUUGGGAGUGUCCAUU
4.7008427040718875409945620713614e-05 #GACUGACGAUCACCUCCUCGGUGAGCACUACAAACGUAGGCUCACCGACGUUUGUAGUUUUC
4.7008427040718875409945620713614e-05 #GCAGCACGGACCAUCAGACCAUUCACUAUCUAAUGCUUUGUGAAUGGAGCAUUAGAUAUUGG
-4.7008427040718875409945620713614e-05 #AGUUACCAACUACGGCAAUACGGAGUAGCUCCUGAUCCUCACCGUUUUCCUACUUUCUAUGC
4.7008427040718875409945620713614e-05 #AGCGUCAGACAGUGCGUCAGAAACAUGCAAAAAGGUUGAAUGUUUCUAACCUUUUUGCCCAU
-4.7008427040718875409945620713614e-05 #UAAAGUGAAAUAAAGAUGCAACCUGAUCUGUCGUGCCCGCCACGAUGUAUUAGGCGGGUUGC
4.7008427040718875409945620713614e-05 #GUGGACUGGUCCAAACGAUCCCGGCUCAUAAAUAAUCUAAGCCGGGAGAUUAUUUAUGCGCA
-4.7008427040718875409945620713614e-05 #UCCUCUCGACUAAGAGAGUGGGCGGGUUAGAUUCCGGUGGGAAAGAGGAACGAUCGAAAUGU
4.7008427040718875409945620713614e-05 #CAACGACCGAACGCAGCAACUUGAUGCUCAAAAACGAAUCAUCAAGUUCGUUUUUGAGGAUU
-2.3165764698886175858641434111007e-05 #UACUAGUUAGGUCUUCUGUUACUCUAAUCAUGAGAAGUUGUAUGUCUCUCGUUAACUAGGAU
4.7008427040718875409945620713614e-05 #UACAGGGGAUACCAAGACGACCUGGCUAAGUCGACGGUCGCCAGGUCCCGUCGACUUAGCCU
-4.7008427040718875409945620713614e-05 #AACUUGUAUUUCUGUCCCCUAAGCUAUCGUCGUAACGUCUCAGGGACCCAGGAGUUGCGCGU
4.7008427040718875409945620713614e-05 #UCCAUGAGUUGGCAACCUCAGCGUCCGGGUUAGGAUCUAGGACGCUGGAUCCUAACCCGCGC
-4.7008427040718875409945620713614e-05 #GUGCUAGCAUCAGGUCCCUGCGACUGUUUAAUUGGGGCUGGGGCCUUUGCAUUAGGGAAUAU
4.7008427040718875409945620713614e-05 #AGGUAGGUAAUAACAACCUAUCACCGGACUACAGGUCCCCGGUGAUAGACCUGUAGUCCCAC
-4.7008427040718875409945620713614e-05 #AAAGUAAUCGGGGGGGCGGAUCAAUGCCCACCACUUCCCUUUAUUGAGCGGGUGGCCCUACG
4.7008427040718875409945620713614e-05 #ACUCCGACCACCCAGGCCGUAGCUCACUUGGCUAAGAAUUGAGCUACUCUUAGCCAAGCAGU
-4.7008427040718875409945620713614e-05 #GCUGCUGCUGGGGCACAUGCAUUAUUGCAAGGCACAUUCCAUUAAUCACCCCGGCAAUCAUU
4.7008427040718875409945620713614e-05 #AUCUGAACGAGACGGGUAGAGUCUAACUCUACCCACCAAUUAGACUCGGUGGGUAGAGUAGU
-4.7008427040718875409945620713614e-05 #AUGUGCGAUACAUGUGGACAGACGAGGUCUUCCAGUCCCGGAGAGAACACGAGUGGUCAGGU
4.7008427040718875409945620713614e-05 #AUACUAAAGGGCGAGCUAAAGUUCGCCCGGGGUAUCAUGGCGAACUUUGAUACCCCGGGUCU
-4.7008427040718875409945620713614e-05 #CCCAGUCGGCUCCAAUGAUGAAUGUGUUCCGAACAGGCGCAAACAUGGUUCUUGUCGCGUAG
4.7008427040718875409945620713614e-05 #AACUACAUAACGUAGGAGCUGCUGUGGUUGUUAAGACGUCACAGCAGGUCUUAACAACCGAU
4.7008427040718875409945620713614e-05 #GUCCAUCCCGUUGUCUACACUUGUUAUUAUGGCUCGCAUUAACAAGUGCGAGCCAUAAAGCU
4.7008427040718875409945620713614e-05 #CAAGACUUGCGGCACUUAUACGGGAAAGUUCGUCGCAAGUUCCCGUAUGCGACGAACUAGGG
-4.7008427040718875409945620713614e-05 #UGGGCUCGUGCAGGAGACAGGGCGUAAGCUCAACGCGUUAUAUAGUGAGGGCCUUGUCGAGU
-4.7008427040718875409945620713614e-05 #UCGUUGCAUGCCCAGCAAAACCUUAGUCAACCGUGAAUAUACAGCGUCGUCUGGGACACGUA
-4.7008427040718875409945620713614e-05 #AAUUUGUCACACUUGCUCAAUGCGAGAAUCCUCGCACGCCUCUCGAAUCAUGGGCGCCGGAU
4.7008427040718875409945620713614e-05 #CCCCCCCGACAUUCGUCAUGCGACCCUCCACACUCUGAAGGGUCGCACAGAGUGUGGAGCAU
-4.7008427040718875409945620713614e-05 #AUGUGAUCACUCUUGAUCGUCGCUGUUCCCACGAGCAUUAGCCAAUUUGACUGACCCGUAUU
-4.7008427040718875409945620713614e-05 #GCCCAUAGCGACCAGGGCCCAAGUACAGCCAUACGAGAGUGGAUGGACUCUUCACCCGUUUU
-4.7008427040718875409945620713614e-05 #CUGAAUCAGCGACGCAUUGUGGCUUUCUCGUAAAAAUCUAAAACACCUACCGUUACCCGAUA
4.7008427040718875409945620713614e-05 #CCCCUUGAAUGAGCAGCCUAACACUCACCACACAGGUCAGAGUGUUAACCUGUGUGGUCGGC
-4.7008427040718875409945620713614e-05 #CAUCCUGCGAGCUUGAUAUAGGUCUGUCCAUAACGCACUGCACGUUGGUAGAGACAGGGUGA
4.7008427040718875409945620713614e-05 #UCGAUAGUGUGCAACAAGCGACCCUCCCGUCAGCAUCGCGAGGGUCGGAUGCUGACGGUAUG
-4.7008427040718875409945620713614e-05 #AAUAUGGCCGGUCCGACUUUUCGAUACUGCAGCUGGACUGUAAAGGAUAUCUACUUCACUCG
4.7008427040718875409945620713614e-05 #GUUCGGCAGGCCCAUCAACCGUCUCAGCAAUGUCUUCAUUGAGACGGGAAGACAUUGCUGAG
-4.7008427040718875409945620713614e-05 #GGUCGAGGCCAUAGGUAAGUUUGAUCAGCUCUAGGGACCCUGGUCGCCGUGACCAAAUGCCU
4.7008427040718875409945620713614e-05 #UAGCGUUCCUGGCCGUAUUUCGUAACUCACAUCGAUUUAGUUACGAAAAUCGAUGUGAGCGC
-4.7008427040718875409945620713614e-05 #ACGUUUGAUCUUACAUCAUUUCGGUAAGGUAGAGAUAAUUCCGCAGAGAUAUGGUAGUGCGG
4.7008427040718875409945620713614e-05 #CCUAGGGAUUGCACAUUAAAAUCGUCCAGUGUGAUCGACGACGAUUUCGAUCACACUGACUC
-4.7008427040718875409945620713614e-05 #CGAUCCCGGCUUACCUUCUGGACGCUUCAUUGAUAGACCGAGAUCCCGAGCGGUGUCAACUU
4.7008427040718875409945620713614e-05 #ACCACUGGACUCAUCAAAGCCAACGGUACACCCACAUUGCCGUUGGCAUGUGGGUGUAUGAA
-4.7008427040718875409945620713614e-05 #CGUAGACCACGACAAGUAAUAUCGCCCUACCCUGGAGUGGACACGAUAACUAGGAUCCCCAA
4.7008427040718875409945620713614e-05 #CAAAGACCCGUGCUUCAGGGCAGGAACACGCUGCUGCGUUUCCUGCCGCAGCAGCGUGUCCA
-4.7008427040718875409945620713614e-05 #CUGUUGUUACAAAGUUGCUGUAAUGAAGAGACAGAUCUGGAGGAGUUCGCUACUCUUCAUUA
4.7008427040718875409945620713614e-05 #GUGGAGAAUCGCGCACUCAUUUCUGAUAAAGAUGGUCGCUCAGAAAUGACCAUCUUUAGCUC
-4.7008427040718875409945620713614e-05 #AUUGCACAUAGCCUACUUGACACCGUAGAGCAAGGCAUCUCUGACGCAUUAGCGUUACAAUC
4.7008427040718875409945620713614e-05 #GCCUUCUUGCCGUUAGUAUCGUUGGAGUUGAAUGUCUCGUCCAACGAAGACAUUCAACAACG
-4.7008427040718875409945620713614e-05 #UUGUCUAGGAUCUAGGCGAAAACCAUUGACGUACCCACCGCGUAGUGUAGCAGACACGGCCC
4.7008427040718875409945620713614e-05 #ACCUCAUCCGCGAACUGUGGGAUUCCCUCCCCAAGGAAUGGAAUCCCUCCUUGGGGAGCGAC
-4.7008427040718875409945620713614e-05 #ACUCGGAUACCAGCGUACAGGACGUCAUAUUAGCCCCCACACCAACUAAUAGCCGGAGAAAU
4.7008427040718875409945620713614e-05 #UGAUAAGGAGGCGUUUACAACCAUUCCUGGUACUUCCUUGAAUGGUUGGAAGUACCAGCAAU
-4.7008427040718875409945620713614e-05 #CCCAUACCAAUGCUGCAAGGGUCUGGGCCGGAUUUCUGUCGCUUGAGAACGAACUGUAUGGA
4.7008427040718875409945620713614e-05 #CGAAACACGCUAGUUUUGAUUUGAGGCGGAUUAUUAGCCCCUCAAAUCUAAUAAUCCGCAGG
-4.7008427040718875409945620713614e-05 #AAGGCGUAGCAACGUCGAUGCAAAGCCCCUACUGUACCACAACGGAUGACCGCCGCAUACCA
4.7008427040718875409945620713614e-05 #GUUGCGUGUGCACUGACUCAAUGCCCGAUUGACUAUAUAGGGCAUUGUAUAGUCAAUCUACU
-4.7008427040718875409945620713614e-05 #CCAUAUGUAUUUGAAUCGGUCGGCUCCUUACGGCAGAAAAUUCUCCCAUCCAUUCCGUAAUC
-4.7008427040718875409945620713614e-05 #CGAACGGACUUACCGUAGUCCGUGCGUGCGAACUAAAAUCUCCAACUAUCCGUGCGCAGUGG
-4.7008427040718875409945620713614e-05 #UCUGAUUUUACUCUACGUUCAGGAUGCGUUGCGAUGUCUCCGAAAACGCGCCGUCAAAAUCG
4.7008427040718875409945620713614e-05 #CUCAAAUUACCCAUUAAAAAACAUUCUACUAACGUCGCAGAAUGUUUCGACGUUAGUAGUCU
-4.7008427040718875409945620713614e-05 #UAUCGCGGCGGAGACCACGGGUCCCUGGCUAGCUUUGAACGGCGGAUGCACUCUGACGAUAA
4.7008427040718875409945620713614e-05 #GUACCUAGAAUUCCGGUUGUGAUUAGAGUUGACGCAUGACUAAUCACAUGCGUCAACUUGUC
-4.7008427040718875409945620713614e-05 #CAUGACCACGGGCAGGUACGGACCAGCAUCCGCACCCACAAUGCCCUGGACCAAAUACUUAA
4.7008427040718875409945620713614e-05 #CAAGCAGGUUCUAGCCUUCCGUAUUAGGGGAUAAUCUAUUAAUACGGAGAUUAUCCCCCCAG
-4.7008427040718875409945620713614e-05 #UCCGGUUAUUAUCGACACCCUCAACUACCUAGGCCCAGGUUGGGCGUCUGAGUUGGCGUUAU
4.7008427040718875409945620713614e-05 #GCUGACGACAACAUCAGAGAACUUUAGGGGCCUGUUUACUAAAGUUCAAACAGGCCCCAACC
-4.7008427040718875409945620713614e-05 #GCUCAUACAGUCGAGCCGUAGAAUACUAAGCAUGCUACAUUUGACCCAUGAAAAUAGCAGUG
4.7008427040718875409945620713614e-05 #GUGUCCUGCCAACGGCAUUGUCUCUAGUCUAUCGGAUAGUAGAGACAAUCCGAUAGACGGAG
4.7008427040718875409945620713614e-05 #UAUGCAUCUCUACACCGUUUAUUCUCGAGGAAGCAUCUGGAGAAUAAGAUGCUUCCUCGAAA
-4.7008427040718875409945620713614e-05 #AAGGCGCUUGAACCGGAUCUAGCGCACGUGACGAUUGGGAGGAUCAUCUGGUGUAUCCUGUU
4.7008427040718875409945620713614e-05 #CCGUUGAUAUGAAGGAUGGAGGAGUGGUGGGUUCCGCGACACUCCUCGCGGAACCCACCAGG
-4.7008427040718875409945620713614e-05 #UUCUAGCAGUGCACCGCUUUCGCCGCGAGAUAUGCCGACCUUUUGGAUACGGUUUAGAAGAC
4.7008427040718875409945620713614e-05 #CCACACCGUAUAUGACAGAGAUACUUCCUCGAAACUCAAAAGUAUCUGAGUUUCGAGGGAUA
4.7008427040718875409945620713614e-05 #UAAAAACGGGUUCCAACUUUCACGCCUGUUCGUCGCCUUGGCGUGAAGGCGACGAACACACG
4.7008427040718875409945620713614e-05 #CGGUUCGUUUCGGUUAUACACUCAUGGUACGCUGACUGGCAUGAGUGAGUCAGCGUACCUUC
-4.7008427040718875409945620713614e-05 #UACUCGGGCAAUGUUGCGAGUCAGUACGAACCAUGCAGUCGCACGUCUACAUAUACUGUCGG
4.7008427040718875409945620713614e-05 #AAGGUUCAAGCUCACACGUUCUAUGAUGCUGCUCUGGGGUCAUAGAACCAGAGCAGCAGCUU
4.7008427040718875409945620713614e-05 #UUUGGGUUCGACAGCGUUCCCUGGUAAUUGGGAACGGAUUACCAGGGCCGUUCCCAAUUGUG
4.7008427040718875409945620713614e-05 #AGUAAGUUCGGACAACGCUUCGGGAACAGUAAUUAUUCCUUCCCGAAAAUAAUUACUGGUUG
-4.7008427040718875409945620713614e-05 #AUGGCCUUCUGCGCCACGCAGUGGCUUAGUAAGGGUCACAUUCAAAUCGGCGUCCGGAAGUA
4.7008427040718875409945620713614e-05 #AUGAGCUUACUCUUGUGAAUCCCUUUAAAUUACAUCCCGAAAGGGAUGGAUGUAAUUUGUAU
-4.7008427040718875409945620713614e-05 #AAUUCCACGCGUCUGUAAUUCGCACCUGCCACCCGAAAGACCUAAUCAUGCAGAAUCUAAAU
4.7008427040718875409945620713614e-05 #AAUGUAUCUCCUGCGCUUCGUAGUCCCGUUGUUAAGAUUGGACUACGUCUUAACAACGCGGG
-4.7008427040718875409945620713614e-05 #GAUCUAACACUAUCAGUCCGAUUGUUCCGGAGGUUAUUCUAGUUCUUGGGCGUAGCUUAUAU
1.2249422448680591070857212598888e-05 #UACGCUCGACAACGGAUUGAGAGGAAAUAUGUUUAGCCCUUCCUCUCGCUAAACAUAUGAGG
-4.7008427040718875409945620713614e-05 #GUAAACUGGCGGUACCGUUAGGGGCACUCCUUGUUGGCGCACUCCGAUAUCAAUGGUUAGGU
4.7008427040718875409945620713614e-05 #CACAAGCAACGCACUCGAACAUGCCGCACUGAUCACUCCCGGCAUGUAGUGAUCAGUGUAUG
-4.7008427040718875409945620713614e-05 #UCGCAAAACCUGUAAGUAUCAUGUUUGUCGGGUCUUGUCUAGAUGUAAUUGUCCGAACUCCA
-4.7008427040718875409945620713614e-05 #UUCGCAAGGCAGCCUCGUCCGGGUACAUUCUCAGUCAUUGGUCUAGGGUUUAAAUACUCGAG
-4.7008427040718875409945620713614e-05 #GGAGUAAGUUUCGUUCACUCGUUUAACGGUUGAUCUUCUCGCACACAAAUCGCGAGGGCCAG
4.7008427040718875409945620713614e-05 #CCAAGCAUCACGUACUAUAACCCCCAUGACGGAGGGUGAUGGGGGUUACCCUCCGUCAGACC
-4.7008427040718875409945620713614e-05 #GUCACCCGUAUUUUGGACCGUUGUAUCAGCGCGUCCGUUUUCCCAUUAGGGAUCCUGACCCU
4.7008427040718875409945620713614e-05 #AGGCAUUCAAUGAAAAGGUGUGGCAUUCGGAGCACCUGAAUGCCACAAGGUGCUCCGACAUU
-4.7008427040718875409945620713614e-05 #UUCCCAGUAGGAGCCCCAUCUUCUAGAUGAUAUGGGGCAAUAAACCCACAGAUUUUAUGAUA
-4.7008427040718875409945620713614e-05 #CUAGCCAAGUGGGGUCUGAGGAAGUUACCGUAACGGAGGGAGCGCACGGCCGGGCAAGCGCG
-4.7008427040718875409945620713614e-05 #AAGGGUUACAGGUAGUCUUAAAUCAAAGAGGAGCGCAUGCUCUGCAAAUUAUCUGCUAUUGA
4.7008427040718875409945620713614e-05 #UUAAGAACGUGAGCGUAGUCAUCUUUUCAGAUAUCAUCCAAAGAUGAAUGAUAUCUGAAGCA
-4.7008427040718875409945620713614e-05 #AGUGAUCUAUAAUAUGAAUCCUAUAUUUGAAGGUCAGAUGCUGGCACCUGAGAUUACCUUCC
4.7008427040718875409945620713614e-05 #CAUUGCAUCACCCACUCGAUCCGGGACACACUAGCGCGAUCCCGGAUGCGCUAGUGUGAGCC
-4.7008427040718875409945620713614e-05 #GUGCCGUAGAUCACACUGUAAACCGCUGUUUACACAGAACACUAAUCUAGCAGAGGCACAUG
4.7008427040718875409945620713614e-05 #UAUAACGCCCCCCACUCAAAUAGUUAACCUUGUCGUAGAUAACUAUUUACGACAAGGUCUCA
-4.7008427040718875409945620713614e-05 #AUGGCGUCAGCGGCACAGACGUUGCGCCCAACUGUGCCCCCAUUGUAGAACAUGGACUCAUC
4.7008427040718875409945620713614e-05 #CUACCCCGCGAAACCCUCCGCCUAUAUGUGGGAGCCUAUUAUAGGCGAGGCUCCCACAGAUG
-4.7008427040718875409945620713614e-05 #GCGACAAGCGAGCGAACAAAUAUAUCUUUUUAGAUCAUUGAUCCACGCCGCAAGAUUUCGCG
4.7008427040718875409945620713614e-05 #GAGCUUAUCCAAAAACCUCUGUUACACGUGAAGGCUACCUGUAACAGUAGCCUUCACGCACC
-4.7008427040718875409945620713614e-05 #CUACGCAGAUGGGUGCGCGUCCUAAACAUUUGCUCCACUAGUACCGACUGGGCAGCACCUGG
4.7008427040718875409945620713614e-05 #CUCUCCUAUAGGUGGGAUCCUACGUGGAGAUUUACACGACACGUAGGGUGUAAAUCUCGGGC
-4.7008427040718875409945620713614e-05 #CCGAUUGGCGGCACUAGUAUGUCUGUAUACACAAGUUCUGCAUCGCCCGCGGGUACGAAGCA
4.7008427040718875409945620713614e-05 #CUCUAAGCCACCUGAUUACGGACUCCUCGGAUAGCAGUCGGAGUCCGCUGCUAUCCGAUUUG
4.7008427040718875409945620713614e-05 #UCAUUACACAGGGAGAGUACCAAGCAACGUUAGUCUUAUUGCUUGGUAAGACUAACGUGAAC
4.7008427040718875409945620713614e-05 #CGCUCGUUUGCCUUUGGGUGGAGCCGCACCAAUGUGCGUCGGCUCCAGCACAUUGGUGGCGC
-4.7008427040718875409945620713614e-05 #GACUUAUUGUUUACCUGCUACAAACCUUAAAGAGACGCGCGAGGCUAUGCUCCUCAGAUGAC
4.7008427040718875409945620713614e-05 #UCGCGGAAGUAGAGUCAUUACAUUCUGUUAACGGACGUGAGAAUGUACGUCCGUUAACCCGU
-4.7008427040718875409945620713614e-05 #UGCCAGGAGCUGCGGUCCUCGCAAACAUCAGGGUUAUUAAGUGUUCCGUAUACCAGAAACUG
4.7008427040718875409945620713614e-05 #CGCAUCUUUAGAUUGCUGGGGAGCAUUGUUUGAGGUUUCAUGCUCCCAACCUCAAACACUUC
-4.7008427040718875409945620713614e-05 #CUUCGCUGGGCAACGGCAGACGGUUAUACGGAUACACAGUGCCGAUCGUUGAACUUCGUUCA
4.7008427040718875409945620713614e-05 #CAUUUGAGUGGGAUAGUCCGAACAGAAUUGAGGUAAAUGUCUGUUCGUUUACCUCAAUUAGU
-4.7008427040718875409945620713614e-05 #GCGCGGCCGAAUUACGUGCGGUGAGUUGCUAUAGGGGCUCCUGGCUCGUUCACUAUCCUAGU
4.7008427040718875409945620713614e-05 #CACGAAACCAUAAAAUGUUUUUGGCUAAAAGCACUACUGAGCCAAAAGUAGUGCUUUUACAA
-4.7008427040718875409945620713614e-05 #CGCGGGCCAUGUGGACGGAGCUUCUGUCAUGCAUCGAAUAUUUAAUCGAGCCAGUUCCGCAC
4.7008427040718875409945620713614e-05 #ACUCGCAAGUUUGUGAGUCACAGGACUAGCAAUUCAGCUGUCCUGUGCUGAAUUGCUACGCG
-4.7008427040718875409945620713614e-05 #GCUUGCAACUGGUUAUCCCCCCCUAAUUAUUAGCUCAUGCCCUAGUUCAAACCCGCCAAGUU
4.7008427040718875409945620713614e-05 #GUAGUCAUUUCGAGUAAACUUCGGACUAGCCCAGCUUCCGUCCGAAGAAGCUGGGCUACAUU
-4.7008427040718875409945620713614e-05 #AAUUAGCGUUAGACAUUUGUAGGACCACGUAAUUUUAGUUAUAAGUUACAUCGACUCGAUAA
4.7008427040718875409945620713614e-05 #UGCAGUGGCAUAGAGAGCUAUUAGUCAAGAGAGCACGGUGACUAAUACGUGCUCUCUUUGGC
-4.7008427040718875409945620713614e-05 #ACCUAGAAACUUGAGCGGGAAGAGAAGCUUCUGACGGCGGAUAGUAUAGUAAAAGUACGUAU
4.7008427040718875409945620713614e-05 #GGCUAACGCGACUACAAAUCGCAGCGCCCUGCAUGUCUACGCUGCGAGACAUGCAGGGAAAG
-4.7008427040718875409945620713614e-05 #UUCGAGAAAGACUGGCUAUUCGCUUGAACACAUUGUAGUACUGAUCCCCGGUCUCGAGGGGC
4.7008427040718875409945620713614e-05 #CCCCCUAUGCCGGUACUGAAACAUCCACAGGCUUAGGUAGGAUGUUUCCUAAGCCUGUCGCC
-4.7008427040718875409945620713614e-05 #AGCUGAGCUAAGCAAGAAGUAACUGUUCGGAACCUUCUAGUAGGAGCAAUUACAUUUCGUUG
4.7008427040718875409945620713614e-05 #AUACAAUGCACCCCCUCAUACCAUAUUUGUUGGUUGUGCAUAUGGUAACAACCAACAAAGAC
-4.7008427040718875409945620713614e-05 #CCAAUCUUUUCCAAUGAGGAGGUAAGCUAAUCCUGGAAAUUGAUGUUGAAAGGUAGACAAGU
4.7008427040718875409945620713614e-05 #GCAAAACCGGCCGUUAACAAGCCCAUCUCGACUACCAAAAUGGGCUUUGGUAGUCGAGAGCC
-4.7008427040718875409945620713614e-05 #UAUGUCUUACUUCUGUACACCAGACUCACGAGGUCAGGCGUGAAAGUAUUCGUCGAGCAUUA
4.7008427040718875409945620713614e-05 #UUCUUAGGAGCACUGAUGCCGGCUUCACCCUGGAUAAAGGAAGCCGGUUAUCCAGGGUAAUA
-4.7008427040718875409945620713614e-05 #ACAUCUGCCUCAUUCGGGUCAUGAUAAGGACAGCUUGAGCCCCGGACCGGUGAAGCUGUAAG
4.7008427040718875409945620713614e-05 #ACAACCUUGAAUAACACAUACAGGGUUUAAUACCUUACCACCCUGUAUAAGGUAUUAAGGCA
-4.7008427040718875409945620713614e-05 #UACUCCAAUGAAGACUAGCGUUACCGCAACACCGGAUGAGGAGCUCGUUUACGAAUGCUAAU
4.7008427040718875409945620713614e-05 #GGACACGAGGAUGUAUUUCUUUACCACACCCUUCGUACUUGGUAAAGUACGAAGGGUGGUUA
-4.7008427040718875409945620713614e-05 #CGGCCGUGGAUUGCCUCGACGCUACACCUCAAUACAGAGGAUAGGCACCAAUGUUUUAGGCA
4.7008427040718875409945620713614e-05 #UUUUCUGAGUAGUCGAUCUACCGAGACUUUACGUGUCCUUCUCGGUAGACACGUAAAGUGUA
-4.7008427040718875409945620713614e-05 #AUGAGAGCGGCUCCGUCCUACCACAAACUAAUUGUAGUCGAAAGGGAUCUUAGUCGUCCCCC
4.7008427040718875409945620713614e-05 #AAAUUGAGCUAAAAAGGUACCAGCUUUGUUACUAGCGGCAAGCUGGUCGCUAGUAACAUUCU
-4.7008427040718875409945620713614e-05 #UGCUAGUCAAAGCUGCAGGAACGUCCGUACAUUGCUCAGCAACCUUUUAAUAGACUCUGCGG
4.7008427040718875409945620713614e-05 #GGGAGGAUCCCACUUUUCUGACUAUCUGGUGGUCGACAUGAUAGUCAGUCGACCACCAACAA
-4.7008427040718875409945620713614e-05 #GCACACCCUGGCAGACUGCGGCCUAACCGCUGAUUUAGGUCGAGCAUGAGGGUUACUCAUUC
4.7008427040718875409945620713614e-05 #CGUGAGCGAAAGGUUGGGUGCUAUGACCCCCAUGACCCUUCAUAGCAGGUCAUGGGGGCGCU
-4.7008427040718875409945620713614e-05 #CUUACAUACGUCCUCGCCUAUGAUGUCUUAUGCCGAGAAUGUGUCCUUACUUUUCAGAUAUG
-4.7008427040718875409945620713614e-05 #ACCCCAUUGCUUCAAACUUCUCUCGUUCGAGGCUUAUGUAUCUACUAUCUGAGACCUAUAAA
-4.7008427040718875409945620713614e-05 #AUGUUAUGAACUCAUCACAUGCUUAGACAGAAAGUUGCAGCGAUGUGGGGAGUUAUAAGAGG
4.7008427040718875409945620713614e-05 #CUACUCCACCGGCAUCCUCGCCAGGAGCCAUACUCGGUAUCCUGGCGCCGAGUAUGGCCGGU
-4.7008427040718875409945620713614e-05 #UGUGCGGGGAUACGCCCCUGAUCGCGGGUACCGGUUCAAUACCGUAUAGCGGGUCUUUACUC
4.7008427040718875409945620713614e-05 #ACAGCGGACAUAUCAUUCCUCCGGUGGGGUCAGCGUUCUCACCGGAGAACGCUGACCCACCA
-4.7008427040718875409945620713614e-05 #AUCCCAGCUGGCGUUCCUGGUUGCCAAGGCCAGUCUUUACUGAAACGCGCCAAUCCUCUUAA
-4.7008427040718875409945620713614e-05 #CCUACGCAUAACCGACGACUAGAAGCUUGGGUUAUGGAGAAAGCGGACGCGACGAUCUGUAC
-4.7008427040718875409945620713614e-05 #GAUUCGAGCCUACGCGCUCAGUUGCCCCAAAAACUGUUCGAAGCGUUCCACCUGUGCGUCAU
4.7008427040718875409945620713614e-05 #CAAGGUAUCGUGUUCGUGACAUUCCAUGAGCCGCCCACGUGGAAUGUUGGGCGGCUCACUUU
-4.7008427040718875409945620713614e-05 #CGGUCUGAGUUCCGGCGAAGGGUCCAGGGGUUCACAUCAAGUGCUCAACAAUGUAUUGAACU
-4.7008427040718875409945620713614e-05 #UACAGAAAAAUCUAGUCGCACCCAAAUAACCUCUUUUUCUUGGCGCGCCCCAAUAAUUUUGG
-4.7008427040718875409945620713614e-05 #UGUGAAGAUUGGGGGCAAACCGAGCCCAGUAAAUAUCGUGAACGGCUACUCAUCGGACGGGG
4.7008427040718875409945620713614e-05 #GACCCCGAGAAAUGCCUCCUCCGUCGCUGAGGAUUCGAGCGACGGAGCGAAUCCUCAGGAGG
-4.7008427040718875409945620713614e-05 #CUGGCGCUCAAGCAAUUCCAAGUCGCCCUUGGCGCACAUAUCGGCGAGUCGUUAGUGCGAGG
4.7008427040718875409945620713614e-05 #UGGAACAUUCCGCCACAGAAGCAUUCUACUUGAAGACGCGAAUGCUUGUCUUCAAGUAGUAG
-4.7008427040718875409945620713614e-05 #AUUCGUAAUAAUAGCCCUACUAUUGCAUUGCUAGGGAGGUGACGGUCUCCAGCUAUAAGUGU
4.7008427040718875409945620713614e-05 #UCGAUUUCCACGAAUUUUCGGUCAGACACCCAUUACCUAUCUGACCGGGUAAUGGGUGACCG
-4.7008427040718875409945620713614e-05 #AUGCUUAAAUACCCGCCGUUAAGUCGGACGGGACUCGUCACGCAUUGGAAUUUACGGCGUUC
4.7008427040718875409945620713614e-05 #UAACAAAUACUACAACUUGCGAAUUACGGCAACAGCAGAUAAUUCGCUGCUGUUGCCGUUUU
-4.7008427040718875409945620713614e-05 #CCAUUAGCGCUGUAACUGAUACUGUAAUUACGCGAGGGUCCGUGGUUAAUUAGCAACACAAA
4.7008427040718875409945620713614e-05 #UCAGUGGCUUUUAUGAAGCUGCGGACGACCCGAGCUCUGGUCCGCAGGAGCUCGGGUCACAU
-4.7008427040718875409945620713614e-05 #AGUAGUAAAUGGAUUCUUUGCAAUCCCCUAGUAACGUCACGGUAACCUGGAUGUCCGAAAUG
4.7008427040718875409945620713614e-05 #AGCUACGAAAGGUUACGCCUGUGCCGAACAUCGGGAUCACGGCACAGAUCCCGAUGUUCGGU
-4.7008427040718875409945620713614e-05 #CUGAUCGCCCGGGGAACCCGUCGCAACGUUCACUAGGGUUCUAUAAUCCGUACUCCUAUGUG
4.7008427040718875409945620713614e-05 #UCACGUCACCUUACCGACUGUGGUCUCUGUGAGGCCAACAGACCACAUGGCCUCACAGCGAA
-4.7008427040718875409945620713614e-05 #AACGGUUCCUAUCAAACGUGAAUUGGACAAGAAUGAGACUCGCAGCACUUUUUGGACGGCGC
4.7008427040718875409945620713614e-05 #UGUGACAAAAAGAAGGCAUUCGAAGUGGACCUUAACCUCACUUCGAAGGUUAAGGUCCCUCU
-4.7008427040718875409945620713614e-05 #AGCUAGGCGUUGCCCUGCCGCCAAUUCGAUUAAGCAGUGCCAUACGUUUAAGCAGACUGCCA
4.7008427040718875409945620713614e-05 #AAGCACCCUGGGAUUCAAGCUGCCAACGGGUGGAUGCAUUUGGCAGCGCAUCCACCCGGGAC
-4.7008427040718875409945620713614e-05 #AGGCAUAUAGUCGGCCAGUCCUUACAGGAAGUGCGGGGUGCCUUCGACGUAUGUUUCUACUG
4.7008427040718875409945620713614e-05 #AGCAAUAUGUCACCCCCAAUAUUAACGGAAGAAUUACUCGUUAAUAUGUAAUUCUUCCUGAC
-4.7008427040718875409945620713614e-05 #ACUGUAAUGCUGUAUAAGUGCAGAGGGCGUGAGUGAUAUACCGGCUACAUCCUUGAACGGGC
4.7008427040718875409945620713614e-05 #UAUCCUGAGGACAUAUUUUAGCGUGUCCUUCCUGUGAAGACACGCUAUCACAGGAAGGGGAC
4.7008427040718875409945620713614e-05 #UCCUGGUUUUGGAGGACGCGUAGGCCCCCGGGCUUUACCGGCCUACGUAAAGCCCGGGUGCA
4.7008427040718875409945620713614e-05 #AAGUUUGAAAGCGGACAGAGUGAGCUUAGAAGUGACUACAGCUCACUAGUCACUUCUAUAUA
-4.7008427040718875409945620713614e-05 #ACUUCAGUGAGUACAGCAGGCCGGGGAACGUGUCAACGUUAACAGCGUGCUUAAAGGAGCAA
4.7008427040718875409945620713614e-05 #UGCACAGGAAACUUAUAAAGCUCAUCAACACGAAACAGUGAUGAGCUUGUUUCGUGUUUGCG
-4.7008427040718875409945620713614e-05 #UGUCAAUCUCAUUGUACCCACCGAGGCCCUCGUGUUGCAAUACCGGCCUUCGGUGCAUAGCC
4.7008427040718875409945620713614e-05 #GCAUCGUACACCUCGCAUAAGGCAGGUUGCCCUCAGCUGCCUGCCUUGCUGAGGGCAAAUUC
-4.7008427040718875409945620713614e-05 #CGACGAUCUUCGACACGCAGCCUCAUGGCCAACACUAAGUUCAUAUAGGAGUGAAGUGCGUC
4.7008427040718875409945620713614e-05 #AGACGAACUUACGCCUUCGGUGCUUUUCGUAAAACAACCAAAGCACCUUGUUUUACGAUACG
-4.7008427040718875409945620713614e-05 #UAGUCUAACUAGAGAAUAGGUGUCGCUACAUGAAAGUUGACGGGCGGAGCGUUUGAGUAUUU
-4.7008427040718875409945620713614e-05 #GGCUCACAUUCAACAGUCUCAAUUAUGCCGAUCGGUGUUACGAGUACGCGUCGCGGACUCUC
-4.7008427040718875409945620713614e-05 #UAAUCUGGACACGAGCACGGAUUGCGAGGUUACCUAGAGGCGCUAUGAGGAGAUCCAGUGAG
4.7008427040718875409945620713614e-05 #AAUAACCGGGCUGUUGCUCCUACCGGAAACAACCUCAGUCCGGUAGGUGAGGUUGUUUGCAA
-4.7008427040718875409945620713614e-05 #GGGCCACAUUUCUUGCGGAGAAGCGGUCUCGAUCCGGAGACACGUCUAUUGUUCGACACGCC
-4.7008427040718875409945620713614e-05 #GAUUCUCGCCAACCUACGGCGUUGGUUGAAAAAUUGGGCUCCCAAGAGCGUUUCUAGCGAGG
-4.7008427040718875409945620713614e-05 #GUUCUAUCCGGUCAAGGUUCCACACAUGCAAUUUACUUAAUAUGACCGGGUCGACCAGUCAU
-4.7008427040718875409945620713614e-05 #GACGCGCGUAGAGCUCCCCCCGUUCUAGGGAGGGCUCAAGAGGGUACGGAUUGCCUACUGUU
-4.7008427040718875409945620713614e-05 #GGACAGACAUUAUGUUAAACGCACAAGGAGUGCUUCUCAUGUUUACCUCCGCAGAAGAGGGA
4.7008427040718875409945620713614e-05 #UGUAGCGUAGAGAGGACGCGACCAAUUAUACCGACCCUAAUUGGUCGGGGUCGGUAUACAAC
-4.7008427040718875409945620713614e-05 #UGCCUUAGCACGUUACUUGAGCGCCGAGUCGCCUAGGACUAAACUAACCGGUUCGGUGCCCU
-4.7008427040718875409945620713614e-05 #CGUUAAGGUGAACCCUGACGCCCUCGCAUACGGGUGGACUACUCAGGGGUCCGAGUAUCUUA
-4.7008427040718875409945620713614e-05 #AUGAUACGUAAUCAUCGACCUCUCGAGUCGGCACGUGUUAUUUAUCCUCAGACACUAUGCAC
4.7008427040718875409945620713614e-05 #UUUUCAUCAGCUGAAGAAAGGUUCAACCUUACCUGUUUGUUGAACCUAACAGGUAAGGCAUG
-4.7008427040718875409945620713614e-05 #CAGUAGACAUAAACGCCGAGGCACAUAGCCCACUUCUUAUCAUGGUUUACUGAUUACCGAAC
4.7008427040718875409945620713614e-05 #AUUGACGAUAGGAGAUGCAGCUAUGGUACCUCGCUAAUACCAUAGCUUUAGCGAGGUACUAU
-4.7008427040718875409945620713614e-05 #AUGCUGUGCCUAGGUACUCGUAGACCGUAGUAAAGUAAUCCCCUUGCGUACCUCCGAUAUAC
-4.7008427040718875409945620713614e-05 #CGGGUCUCUAAUGAAACAAUAUUCCUUCAGUCCAUAGCCAGGUCGUCUCCGCAAUCUCACUU
-4.7008427040718875409945620713614e-05 #GACACGGGUCUCGUCGUGUAGUCAAGACCGCCGACUACUUACAAGCGAUAUACGACGAAUGG
4.7008427040718875409945620713614e-05 #GCCUGGUUUGUCCCGGACGGUUGCCAGGUCCAAAUGGCUUGGCAACCCCAUUUGGACCUCCG
-4.7008427040718875409945620713614e-05 #UGCCCGCCUUACUAUGCCCAUAAGGACCAGCUGUGUAUAUCAGAAAGCGUCAUCAUCCGCCC
-4.7008427040718875409945620713614e-05 #CAUCGUGAUCCGGCAAAAACUGGAUUGCUUAGUUUAGAAAGGACUACUACACUGCCAUUUCU
-4.7008427040718875409945620713614e-05 #UAGAUCGGAUCCUCCGGUUAUACGUAUGCCCACUAGGGCGUAUCCGCCUGCCGUUAUCGAAU
4.7008427040718875409945620713614e-05 #CUCUACCCUCCAAAUUUCGGUCUGGUUGCCCAGAUGCGUACCAGACCGCAUCUGGGCAGCGG
-4.7008427040718875409945620713614e-05 #UAGACUGUGUUAUGCUCCUGUUCGGACCGAAAUAAGUGAAAUACACGCAUCCCAUUUGGAGA
4.8405563878098898690505169639664e-06 #UGACCCGAAAGUGUCCCCAAAGGAUAUAAGGUCGGACGAUAUCCUUUGUCCGACCUUACGGA
-4.7008427040718875409945620713614e-05 #UGAGCCCCACAGCAUGUUUUUGGACGGGAGAUCAAACCCGUCCGGGGAAAUUGAUUGAAGGU
4.7008427040718875409945620713614e-05 #CGUCGUCACAACCUACGGGCCGUAUAUUCCUAUGCUAAUUAUACGGCUAGCAUAGGAACAUA
-4.7008427040718875409945620713614e-05 #UUGCAAAUCCUCGGUAGCCAAGAGACCUGCGAACCAGCCUUGGACUAUGCUGCCGCAUGGGC
4.7008427040718875409945620713614e-05 #AAAGCGUAGACGUCCGAUAGACAUUGCCCGUCAUUCACCCAAUGUCUUGAAUGACGGGAGAG
-4.7008427040718875409945620713614e-05 #AGCCAUCGGAUUGUUCGAUAACUGACGUCGUGCGUCAGUAAGUGAGUGGGAGUUGUGCCUUG
4.7008427040718875409945620713614e-05 #UAUCCUGUUAACCACUCAAAAUUGGAGGAUUUCGGAACUUCCAAUUUUUCCGAAAUCCUCUA
-4.7008427040718875409945620713614e-05 #CACACAUGUAUGACUUAGAGGGUGUGCCCACUAUUGUCCCCGUCCCACUAUAGCGACUGACU
4.7008427040718875409945620713614e-05 #AGCAGAAUCAAGUGAAAUUCUGGCGAUACCACUGCUGCCUCGCCAGACAGCAGUGGUAUGGA
-4.7008427040718875409945620713614e-05 #AGUAUUUUGAAAAGGUCAGCAGUUACUGAAAUGUUACCUCGUCGUCAGCAUCGCAGUUCUUC
4.7008427040718875409945620713614e-05 #UGGGGCAAUCACCAUAUCGGAACCCUGUAUGCUCUAAUUAGGGUUCCUUAGAGCAUACCAUA
-4.7008427040718875409945620713614e-05 #AUCUGACACGCAUGCUCUAAUCUUUGACUUAUGCCCCACUGAUUAGCCAGGUUAGCGGAAUU
4.7008427040718875409945620713614e-05 #CCUUGUAGAACCAGAGAUUAUAGCCAAAUUGAGAUGUUCUGGCUAUAACAUCUCAAUUUUAA
-4.7008427040718875409945620713614e-05 #UGAUAUGCUGCUAAUCAAGCUCCUCACGACUUCUGCGCAAUGUCGCAACGCGUUAGUGGUUA
4.7008427040718875409945620713614e-05 #AGGGUGGUUAAGGAUGGAGGAUCGUUCUGUAGUGCCCCAAACGAUCCGGGCACUACAGGCAG
-4.7008427040718875409945620713614e-05 #CGGUCCGUGCGGCUAGACUGGAAGUGCGGAUCAAGCGCGCUCUGGCCGAACGAGGUCUUCCC
4.7008427040718875409945620713614e-05 #AACCCGACCGUAUGGAGUUGAAAUCUCUGUGGUUCGUCUAGAUUUCAACGAACCACAGGUCG
-4.7008427040718875409945620713614e-05 #CUGUGUUCACUAAAUCAGGCAAGGACCACCGUGCCGAAUACCACGCUGUACCAUUUAGUCCA
-4.7008427040718875409945620713614e-05 #GCGGCCCGGCGAGCAUAAAGCUGCUGCCUUGAGCAUACAAAGAACAUCAUCCGUAAACCUGU
-4.7008427040718875409945620713614e-05 #UCGGACGUGCUGUCGCGGAGGGACACUAAGACCGUCCAGUCUAAGGCCCCUCCUACGUCAUC
-4.7008427040718875409945620713614e-05 #GCGCUCAAAGAGCAAUUUGGUCCGUCGCGCACAAUUCUUCAUUCUCAGGGCAUAAGCGUUUC
-4.7008427040718875409945620713614e-05 #ACAAAAGCUAAUAAGUUAGGAUACAAUUGUGGAAGAAGCUGGCGGUAAUAAUUAGCAAGACC
4.7008427040718875409945620713614e-05 #AACGUUAAAGAACGUGUCACGGACUUCGACAACGGGAGGAAGUCCGUUCCCGUUGUCGACGU
-4.7008427040718875409945620713614e-05 #CCAAGCUAAUAGGGGCCGCGAGGGUAGUAUACAACGCAGGUGCAGUCUAUUAAAGCAGGAAA
4.7008427040718875409945620713614e-05 #GAAAUAGAGGGUUUCGAUGCCCACUCUGGCCCCCGGCCAGAGUGGGCGCCGGGGGCCACUGG
-4.7008427040718875409945620713614e-05 #AAUGCAUGACAUCCAUGCUCCACUUCCAAGGAGAAUAUAAGUUCGUGCAAACACGCACCAUU
4.7008427040718875409945620713614e-05 #GUUAGGCGUUUCCAUGCCCACCCAGGAGUAUACCAUCGUCCUGGGUGGAUGGUAUACUGACC
-4.7008427040718875409945620713614e-05 #CAUACGAUAAUUAGGGAAGCCAUCGGUCUGAGGCGUUGGCGAGGGCGACCCAGGCCCGAGGU
4.7008427040718875409945620713614e-05 #UGGCUCCCUUACUUCACUUGAAGGCACUUGCCCUAAACCUGCCUUCAUUUAGGGCAAGUAGG
