SVM-light Version V6.02
4 # kernel type
3 # kernel parameter -d 
1 # kernel parameter -g 
1 # kernel parameter -s 
1 # kernel parameter -r 
12# kernel parameter -u 
0 # highest feature index 
10 # number of training documents 
11 # number of support vectors plus 1 
-0.21860595 # threshold b, each following line is a SV (starting with alpha*y)
-4.2788402238868546753180338582112e-05 #GCCUGGUUGAUAAAAGAAGUAGAAGGUAAUUCCGAACCCCUAGGAUUUCACUUAAACCGUAUU
-4.2788402238868546753180338582112e-05 #UGAGAUUAUAAACGCUUUGGCAGAUUGCUGUCACGGCGUAAUACUCCACAAACGCGUGAAUG
-4.2788402238868546753180338582112e-05 #UUCUGCUGACAGUUUGCACACUAAGAAUCGGAAAAAGAAUCUGUAUUGAAUCUGAGGUGAUC
-4.2788402238868546753180338582112e-05 #AACAUUUUGUUGAUCACUAAUGGUGAAGCCAAGGAUAGGAUUCCUUUAAUGUUACAAAGAUAG
-4.2788402238868546753180338582112e-05 #AACCGUGGUAUUCUAGGAUAUACUGUAGUAAUAAAGGGACUAAUCGUAUAUUACUCUGUUAA
4.2788402238868546753180338582112e-05 #CUACUCUUGUACAGAAUGGUAAGCACGUGUAAUAGGAGGUACAAGCAACCCUAUUGCAUAUUA
4.2788402238868546753180338582112e-05 #ACACUCUCUAUCAGAAUGGAUGUCUUGCUGUCAUAACAGAUAGAGAAGGUUGUGGCAGACCC
4.2788402238868546753180338582112e-05 #GCACUCUCUAUCAGAAUGGAUGUCUUGCUGCUAUAAUAGAUAGAGAAGGUUAUAGCAGACUA
4.2788402238868546753180338582112e-05 #CUAGUCUUAUACACAAUGGUAAGCCAGUGGUAGUAAAGGUAUAAGAAAUUUGCUACUAUGUUA
4.2788402238868546753180338582112e-05 #UUAGUCUUACACACAAUGGUAGGCCAGUGAUAGUAAAGUGUAAGUAAUUUGCUAUCAUAUUA
