SVM-light Version V6.02
4 # kernel type
3 # kernel parameter -d 
1 # kernel parameter -g 
1 # kernel parameter -s 
1 # kernel parameter -r 
15# kernel parameter -u 
0 # highest feature index 
10 # number of training documents 
11 # number of support vectors plus 1 
-0.13443662 # threshold b, each following line is a SV (starting with alpha*y)
-2.159104169693763422945356755811e-05 #GCCUGGUUGAUAAAAGAAGUAGAAGGUAAUUCCGAACCCCUAGGAUUUCACUUAAACCGUAUU
-2.159104169693763422945356755811e-05 #UGAGAUUAUAAACGCUUUGGCAGAUUGCUGUCACGGCGUAAUACUCCACAAACGCGUGAAUG
-2.159104169693763422945356755811e-05 #UUCUGCUGACAGUUUGCACACUAAGAAUCGGAAAAAGAAUCUGUAUUGAAUCUGAGGUGAUC
-2.159104169693763422945356755811e-05 #AACAUUUUGUUGAUCACUAAUGGUGAAGCCAAGGAUAGGAUUCCUUUAAUGUUACAAAGAUAG
-2.159104169693763422945356755811e-05 #AACCGUGGUAUUCUAGGAUAUACUGUAGUAAUAAAGGGACUAAUCGUAUAUUACUCUGUUAA
2.159104169693763422945356755811e-05 #CUACUCUUGUACAGAAUGGUAAGCACGUGUAAUAGGAGGUACAAGCAACCCUAUUGCAUAUUA
2.159104169693763422945356755811e-05 #ACACUCUCUAUCAGAAUGGAUGUCUUGCUGUCAUAACAGAUAGAGAAGGUUGUGGCAGACCC
2.159104169693763422945356755811e-05 #GCACUCUCUAUCAGAAUGGAUGUCUUGCUGCUAUAAUAGAUAGAGAAGGUUAUAGCAGACUA
2.159104169693763422945356755811e-05 #CUAGUCUUAUACACAAUGGUAAGCCAGUGGUAGUAAAGGUAUAAGAAAUUUGCUACUAUGUUA
2.159104169693763422945356755811e-05 #UUAGUCUUACACACAAUGGUAGGCCAGUGAUAGUAAAGUGUAAGUAAUUUGCUAUCAUAUUA
