SVM-light Version V6.02
4 # kernel type
3 # kernel parameter -d
1 # kernel parameter -g
1 # kernel parameter -s
1 # kernel parameter -r
10# kernel parameter -u
0 # highest feature index
10 # number of training documents
11 # number of support vectors plus 1
-0.16032299 # threshold b, each following line is a SV (starting with alpha*y)
-6.4881825840971905894859206309633e-05 #GCCUGGUUGAUAAAAGAAGUAGAAGGUAAUUCCGAACCCCUAGGAUUUCACUUAAACCGUAUU
-6.4881825840971905894859206309633e-05 #UGAGAUUAUAAACGCUUUGGCAGAUUGCUGUCACGGCGUAAUACUCCACAAACGCGUGAAUG
-6.4881825840971905894859206309633e-05 #UUCUGCUGACAGUUUGCACACUAAGAAUCGGAAAAAGAAUCUGUAUUGAAUCUGAGGUGAUC
-6.4881825840971905894859206309633e-05 #AACAUUUUGUUGAUCACUAAUGGUGAAGCCAAGGAUAGGAUUCCUUUAAUGUUACAAAGAUAG
-6.4881825840971905894859206309633e-05 #AACCGUGGUAUUCUAGGAUAUACUGUAGUAAUAAAGGGACUAAUCGUAUAUUACUCUGUUAA
6.4881825840971905894859206309633e-05 #CUACUCUUGUACAGAAUGGUAAGCACGUGUAAUAGGAGGUACAAGCAACCCUAUUGCAUAUUA
6.4881825840971905894859206309633e-05 #ACACUCUCUAUCAGAAUGGAUGUCUUGCUGUCAUAACAGAUAGAGAAGGUUGUGGCAGACCC
6.4881825840971905894859206309633e-05 #GCACUCUCUAUCAGAAUGGAUGUCUUGCUGCUAUAAUAGAUAGAGAAGGUUAUAGCAGACUA
6.4881825840971905894859206309633e-05 #CUAGUCUUAUACACAAUGGUAAGCCAGUGGUAGUAAAGGUAUAAGAAAUUUGCUACUAUGUUA
6.4881825840971905894859206309633e-05 #UUAGUCUUACACACAAUGGUAGGCCAGUGAUAGUAAAGUGUAAGUAAUUUGCUAUCAUAUUA
